%YAML:1.0
---
opencv_ml_svm:
   format: 3
   svmType: C_SVC
   kernel:
      type: RBF
      gamma: 1.0000000000000001e-05
   C: 1.0000000000000001e-01
   term_criteria: { iterations:100 }
   var_count: 70
   class_count: 2
   class_labels: !!opencv-matrix
      rows: 2
      cols: 1
      dt: i
      data: [ 0, 1 ]
   sv_total: 186
   support_vectors:
      - [ 0., 1.38675049e-01, 1.38675049e-01, 0., 1.38675049e-01,
          1.38675049e-01, 1.38675049e-01, 0., 0., 1.38675049e-01,
          1.38675049e-01, 0., 1.38675049e-01, 1.38675049e-01,
          1.38675049e-01, 1.38675049e-01, 0., 1.38675049e-01, 0.,
          1.38675049e-01, 0., 1.38675049e-01, 1.38675049e-01,
          1.38675049e-01, 0., 0., 1.38675049e-01, 1.38675049e-01,
          1.38675049e-01, 1.38675049e-01, 1.38675049e-01, 1.38675049e-01,
          1.38675049e-01, 0., 0., 1.38675049e-01, 0., 1.38675049e-01,
          1.38675049e-01, 1.38675049e-01, 1.38675049e-01, 1.38675049e-01,
          1.38675049e-01, 1.38675049e-01, 0., 0., 1.38675049e-01,
          1.38675049e-01, 1.38675049e-01, 1.38675049e-01, 1.38675049e-01,
          1.38675049e-01, 1.38675049e-01, 1.38675049e-01, 1.38675049e-01,
          1.38675049e-01, 0., 1.38675049e-01, 1.38675049e-01,
          1.38675049e-01, 1.38675049e-01, 1.38675049e-01, 1.38675049e-01,
          1.38675049e-01, 1.38675049e-01, 0., 1.38675049e-01, 0.,
          1.38675049e-01, 1.38675049e-01 ]
      - [ 1.27000123e-01, 1.27000123e-01, 1.27000123e-01, 1.27000123e-01,
          1.27000123e-01, 1.27000123e-01, 1.27000123e-01, 1.27000123e-01,
          0., 0., 1.27000123e-01, 1.27000123e-01, 1.27000123e-01,
          1.27000123e-01, 1.27000123e-01, 1.27000123e-01, 0.,
          1.27000123e-01, 0., 1.27000123e-01, 1.27000123e-01,
          1.27000123e-01, 1.27000123e-01, 1.27000123e-01, 0.,
          1.27000123e-01, 1.27000123e-01, 1.27000123e-01, 1.27000123e-01,
          1.27000123e-01, 1.27000123e-01, 1.27000123e-01, 1.27000123e-01,
          1.27000123e-01, 1.27000123e-01, 1.27000123e-01, 1.27000123e-01,
          1.27000123e-01, 1.27000123e-01, 1.27000123e-01, 1.27000123e-01,
          1.27000123e-01, 1.27000123e-01, 1.27000123e-01, 1.27000123e-01,
          1.27000123e-01, 1.27000123e-01, 1.27000123e-01, 1.27000123e-01,
          1.27000123e-01, 0., 1.27000123e-01, 1.27000123e-01, 0.,
          1.27000123e-01, 1.27000123e-01, 1.27000123e-01, 1.27000123e-01,
          1.27000123e-01, 1.27000123e-01, 1.27000123e-01, 1.27000123e-01,
          1.27000123e-01, 1.27000123e-01, 1.27000123e-01, 1.27000123e-01,
          1.27000123e-01, 0., 1.27000123e-01, 1.27000123e-01 ]
      - [ 0., 1.41421363e-01, 1.41421363e-01, 0., 1.41421363e-01,
          1.41421363e-01, 1.41421363e-01, 0., 0., 1.41421363e-01,
          1.41421363e-01, 0., 1.41421363e-01, 1.41421363e-01,
          1.41421363e-01, 0., 1.41421363e-01, 0., 1.41421363e-01,
          1.41421363e-01, 0., 1.41421363e-01, 0., 1.41421363e-01,
          1.41421363e-01, 0., 1.41421363e-01, 0., 1.41421363e-01,
          1.41421363e-01, 1.41421363e-01, 1.41421363e-01, 1.41421363e-01,
          1.41421363e-01, 0., 1.41421363e-01, 1.41421363e-01,
          1.41421363e-01, 0., 1.41421363e-01, 0., 1.41421363e-01,
          1.41421363e-01, 1.41421363e-01, 0., 1.41421363e-01,
          1.41421363e-01, 1.41421363e-01, 0., 1.41421363e-01,
          1.41421363e-01, 1.41421363e-01, 0., 0., 1.41421363e-01, 0., 0.,
          1.41421363e-01, 1.41421363e-01, 1.41421363e-01, 1.41421363e-01,
          1.41421363e-01, 1.41421363e-01, 1.41421363e-01, 1.41421363e-01,
          1.41421363e-01, 1.41421363e-01, 1.41421363e-01, 1.41421363e-01,
          1.41421363e-01 ]
      - [ 1.30188912e-01, 0., 1.30188912e-01, 1.30188912e-01,
          1.30188912e-01, 1.30188912e-01, 1.30188912e-01, 1.30188912e-01,
          1.30188912e-01, 1.30188912e-01, 1.30188912e-01, 1.30188912e-01,
          1.30188912e-01, 1.30188912e-01, 0., 0., 1.30188912e-01,
          1.30188912e-01, 1.30188912e-01, 1.30188912e-01, 1.30188912e-01,
          1.30188912e-01, 1.30188912e-01, 1.30188912e-01, 1.30188912e-01,
          0., 1.30188912e-01, 1.30188912e-01, 1.30188912e-01,
          1.30188912e-01, 1.30188912e-01, 0., 1.30188912e-01,
          1.30188912e-01, 1.30188912e-01, 1.30188912e-01, 1.30188912e-01,
          1.30188912e-01, 0., 1.30188912e-01, 1.30188912e-01,
          1.30188912e-01, 1.30188912e-01, 1.30188912e-01, 1.30188912e-01,
          1.30188912e-01, 1.30188912e-01, 1.30188912e-01, 1.30188912e-01,
          1.30188912e-01, 1.30188912e-01, 1.30188912e-01, 1.30188912e-01,
          0., 1.30188912e-01, 0., 1.30188912e-01, 1.30188912e-01,
          1.30188912e-01, 1.30188912e-01, 0., 1.30188912e-01,
          1.30188912e-01, 1.30188912e-01, 0., 1.30188912e-01,
          1.30188912e-01, 0., 1.30188912e-01, 1.30188912e-01 ]
      - [ 1.32453233e-01, 1.32453233e-01, 1.32453233e-01, 0.,
          1.32453233e-01, 1.32453233e-01, 1.32453233e-01, 0., 0.,
          1.32453233e-01, 1.32453233e-01, 1.32453233e-01, 1.32453233e-01,
          1.32453233e-01, 1.32453233e-01, 1.32453233e-01, 0., 0., 0.,
          1.32453233e-01, 1.32453233e-01, 1.32453233e-01, 1.32453233e-01,
          0., 1.32453233e-01, 1.32453233e-01, 1.32453233e-01,
          1.32453233e-01, 1.32453233e-01, 1.32453233e-01, 1.32453233e-01,
          0., 1.32453233e-01, 1.32453233e-01, 1.32453233e-01,
          1.32453233e-01, 1.32453233e-01, 1.32453233e-01, 0.,
          1.32453233e-01, 1.32453233e-01, 1.32453233e-01, 1.32453233e-01,
          1.32453233e-01, 1.32453233e-01, 0., 1.32453233e-01,
          1.32453233e-01, 1.32453233e-01, 1.32453233e-01, 0.,
          1.32453233e-01, 0., 1.32453233e-01, 1.32453233e-01,
          1.32453233e-01, 0., 1.32453233e-01, 1.32453233e-01,
          1.32453233e-01, 1.32453233e-01, 1.32453233e-01, 1.32453233e-01,
          1.32453233e-01, 1.32453233e-01, 1.32453233e-01, 1.32453233e-01,
          1.32453233e-01, 1.32453233e-01, 1.32453233e-01 ]
      - [ 0., 0., 0., 0., 0., 0., 0., 0., 0., 0., 3.16227764e-01, 0., 0.,
          0., 0., 0., 0., 0., 0., 0., 0., 0., 0., 3.16227764e-01, 0., 0.,
          0., 0., 0., 0., 0., 0., 0., 3.16227764e-01, 0., 0., 0., 0., 0.,
          0., 0., 3.16227764e-01, 0., 0., 0., 0., 0., 0., 0., 0.,
          3.16227764e-01, 3.16227764e-01, 3.16227764e-01, 0., 0., 0., 0.,
          0., 3.16227764e-01, 0., 0., 0., 0., 0., 0., 3.16227764e-01, 0.,
          0., 3.16227764e-01, 0. ]
      - [ 1.37360558e-01, 1.37360558e-01, 1.37360558e-01, 0.,
          1.37360558e-01, 1.37360558e-01, 1.37360558e-01, 0., 0.,
          1.37360558e-01, 1.37360558e-01, 1.37360558e-01, 1.37360558e-01,
          1.37360558e-01, 1.37360558e-01, 1.37360558e-01, 1.37360558e-01,
          1.37360558e-01, 1.37360558e-01, 1.37360558e-01, 1.37360558e-01,
          1.37360558e-01, 1.37360558e-01, 1.37360558e-01, 1.37360558e-01,
          0., 1.37360558e-01, 1.37360558e-01, 1.37360558e-01,
          1.37360558e-01, 1.37360558e-01, 0., 1.37360558e-01,
          1.37360558e-01, 1.37360558e-01, 0., 1.37360558e-01, 0.,
          1.37360558e-01, 1.37360558e-01, 0., 1.37360558e-01, 0.,
          1.37360558e-01, 1.37360558e-01, 1.37360558e-01, 1.37360558e-01,
          1.37360558e-01, 0., 1.37360558e-01, 0., 0., 1.37360558e-01,
          1.37360558e-01, 1.37360558e-01, 1.37360558e-01, 0.,
          1.37360558e-01, 1.37360558e-01, 1.37360558e-01, 0.,
          1.37360558e-01, 0., 1.37360558e-01, 0., 1.37360558e-01,
          1.37360558e-01, 1.37360558e-01, 0., 1.37360558e-01 ]
      - [ 1.21267810e-01, 1.21267810e-01, 1.21267810e-01, 1.21267810e-01,
          0., 1.21267810e-01, 1.21267810e-01, 1.21267810e-01,
          1.21267810e-01, 1.21267810e-01, 1.21267810e-01, 1.21267810e-01,
          1.21267810e-01, 1.21267810e-01, 1.21267810e-01, 1.21267810e-01,
          1.21267810e-01, 1.21267810e-01, 1.21267810e-01, 1.21267810e-01,
          1.21267810e-01, 1.21267810e-01, 1.21267810e-01, 1.21267810e-01,
          1.21267810e-01, 1.21267810e-01, 1.21267810e-01, 1.21267810e-01,
          1.21267810e-01, 1.21267810e-01, 1.21267810e-01, 1.21267810e-01,
          1.21267810e-01, 1.21267810e-01, 1.21267810e-01, 1.21267810e-01,
          1.21267810e-01, 1.21267810e-01, 1.21267810e-01, 1.21267810e-01,
          1.21267810e-01, 1.21267810e-01, 1.21267810e-01, 1.21267810e-01,
          1.21267810e-01, 1.21267810e-01, 1.21267810e-01, 1.21267810e-01,
          1.21267810e-01, 1.21267810e-01, 1.21267810e-01, 1.21267810e-01,
          1.21267810e-01, 1.21267810e-01, 1.21267810e-01, 1.21267810e-01,
          1.21267810e-01, 0., 1.21267810e-01, 1.21267810e-01,
          1.21267810e-01, 1.21267810e-01, 1.21267810e-01, 1.21267810e-01,
          1.21267810e-01, 1.21267810e-01, 1.21267810e-01, 1.21267810e-01,
          1.21267810e-01, 1.21267810e-01 ]
      - [ 1.32453233e-01, 1.32453233e-01, 1.32453233e-01, 1.32453233e-01,
          1.32453233e-01, 1.32453233e-01, 1.32453233e-01, 1.32453233e-01,
          0., 1.32453233e-01, 1.32453233e-01, 1.32453233e-01,
          1.32453233e-01, 1.32453233e-01, 0., 1.32453233e-01,
          1.32453233e-01, 1.32453233e-01, 1.32453233e-01, 0.,
          1.32453233e-01, 1.32453233e-01, 1.32453233e-01, 1.32453233e-01,
          1.32453233e-01, 0., 0., 1.32453233e-01, 1.32453233e-01,
          1.32453233e-01, 1.32453233e-01, 0., 1.32453233e-01,
          1.32453233e-01, 1.32453233e-01, 1.32453233e-01, 0.,
          1.32453233e-01, 0., 1.32453233e-01, 1.32453233e-01,
          1.32453233e-01, 1.32453233e-01, 1.32453233e-01, 1.32453233e-01,
          1.32453233e-01, 1.32453233e-01, 1.32453233e-01, 1.32453233e-01,
          1.32453233e-01, 0., 0., 1.32453233e-01, 1.32453233e-01,
          1.32453233e-01, 1.32453233e-01, 1.32453233e-01, 0., 0.,
          1.32453233e-01, 0., 1.32453233e-01, 1.32453233e-01,
          1.32453233e-01, 1.32453233e-01, 1.32453233e-01, 1.32453233e-01,
          1.32453233e-01, 1.32453233e-01, 1.32453233e-01 ]
      - [ 1.52498573e-01, 1.52498573e-01, 1.52498573e-01, 0.,
          1.52498573e-01, 0., 1.52498573e-01, 1.52498573e-01, 0.,
          1.52498573e-01, 1.52498573e-01, 1.52498573e-01, 1.52498573e-01,
          0., 1.52498573e-01, 1.52498573e-01, 0., 0., 0., 1.52498573e-01,
          1.52498573e-01, 0., 1.52498573e-01, 1.52498573e-01,
          1.52498573e-01, 0., 0., 1.52498573e-01, 1.52498573e-01,
          1.52498573e-01, 1.52498573e-01, 0., 1.52498573e-01,
          1.52498573e-01, 0., 0., 1.52498573e-01, 0., 1.52498573e-01,
          1.52498573e-01, 0., 1.52498573e-01, 0., 0., 1.52498573e-01, 0.,
          0., 1.52498573e-01, 1.52498573e-01, 0., 1.52498573e-01,
          1.52498573e-01, 0., 1.52498573e-01, 1.52498573e-01,
          1.52498573e-01, 0., 0., 1.52498573e-01, 1.52498573e-01, 0., 0.,
          1.52498573e-01, 0., 1.52498573e-01, 1.52498573e-01,
          1.52498573e-01, 0., 1.52498573e-01, 1.52498573e-01 ]
      - [ 0., 0., 0., 0., 0., 2.29415730e-01, 2.29415730e-01, 0., 0., 0.,
          2.29415730e-01, 0., 0., 2.29415730e-01, 0., 0., 0.,
          2.29415730e-01, 2.29415730e-01, 0., 2.29415730e-01,
          2.29415730e-01, 0., 0., 2.29415730e-01, 0., 0., 0.,
          2.29415730e-01, 0., 2.29415730e-01, 0., 0., 0., 0.,
          2.29415730e-01, 2.29415730e-01, 0., 0., 2.29415730e-01, 0.,
          2.29415730e-01, 0., 2.29415730e-01, 0., 0., 2.29415730e-01, 0.,
          2.29415730e-01, 0., 0., 0., 0., 0., 0., 0., 0., 0., 0., 0., 0.,
          0., 0., 0., 0., 0., 0., 0., 0., 2.29415730e-01 ]
      - [ 0., 1.96116135e-01, 0., 0., 0., 0., 1.96116135e-01,
          1.96116135e-01, 1.96116135e-01, 1.96116135e-01, 0., 0., 0.,
          1.96116135e-01, 0., 0., 1.96116135e-01, 0., 0., 0., 0., 0., 0.,
          1.96116135e-01, 1.96116135e-01, 0., 1.96116135e-01, 0., 0., 0.,
          0., 0., 1.96116135e-01, 1.96116135e-01, 1.96116135e-01, 0., 0.,
          0., 0., 1.96116135e-01, 0., 0., 0., 0., 0., 0., 0.,
          1.96116135e-01, 1.96116135e-01, 1.96116135e-01, 0.,
          1.96116135e-01, 0., 0., 0., 1.96116135e-01, 0., 0.,
          1.96116135e-01, 0., 0., 1.96116135e-01, 1.96116135e-01, 0.,
          1.96116135e-01, 0., 1.96116135e-01, 1.96116135e-01,
          1.96116135e-01, 0. ]
      - [ 0., 1.41421363e-01, 1.41421363e-01, 1.41421363e-01,
          1.41421363e-01, 1.41421363e-01, 1.41421363e-01, 1.41421363e-01,
          0., 1.41421363e-01, 1.41421363e-01, 0., 1.41421363e-01, 0.,
          1.41421363e-01, 0., 1.41421363e-01, 1.41421363e-01, 0.,
          1.41421363e-01, 1.41421363e-01, 1.41421363e-01, 0.,
          1.41421363e-01, 0., 1.41421363e-01, 1.41421363e-01, 0.,
          1.41421363e-01, 1.41421363e-01, 1.41421363e-01, 0.,
          1.41421363e-01, 1.41421363e-01, 1.41421363e-01, 1.41421363e-01,
          0., 1.41421363e-01, 1.41421363e-01, 1.41421363e-01,
          1.41421363e-01, 1.41421363e-01, 1.41421363e-01, 1.41421363e-01,
          1.41421363e-01, 1.41421363e-01, 1.41421363e-01, 0.,
          1.41421363e-01, 1.41421363e-01, 0., 1.41421363e-01,
          1.41421363e-01, 1.41421363e-01, 1.41421363e-01, 0., 0.,
          1.41421363e-01, 1.41421363e-01, 1.41421363e-01, 0.,
          1.41421363e-01, 1.41421363e-01, 1.41421363e-01, 0., 0.,
          1.41421363e-01, 0., 0., 1.41421363e-01 ]
      - [ 1.92450091e-01, 1.92450091e-01, 0., 0., 1.92450091e-01, 0.,
          1.92450091e-01, 1.92450091e-01, 0., 1.92450091e-01,
          1.92450091e-01, 1.92450091e-01, 0., 0., 1.92450091e-01, 0., 0.,
          0., 0., 1.92450091e-01, 1.92450091e-01, 0., 1.92450091e-01,
          1.92450091e-01, 1.92450091e-01, 0., 0., 0., 0., 1.92450091e-01,
          0., 0., 1.92450091e-01, 0., 0., 0., 0., 1.92450091e-01, 0.,
          1.92450091e-01, 1.92450091e-01, 0., 0., 1.92450091e-01,
          1.92450091e-01, 0., 1.92450091e-01, 0., 1.92450091e-01,
          1.92450091e-01, 0., 0., 0., 0., 1.92450091e-01, 0., 0., 0., 0.,
          0., 0., 0., 0., 0., 0., 0., 0., 0., 1.92450091e-01,
          1.92450091e-01 ]
      - [ 0., 1.31306440e-01, 1.31306440e-01, 0., 1.31306440e-01,
          1.31306440e-01, 1.31306440e-01, 1.31306440e-01, 0.,
          1.31306440e-01, 1.31306440e-01, 1.31306440e-01, 1.31306440e-01,
          1.31306440e-01, 1.31306440e-01, 1.31306440e-01, 1.31306440e-01,
          1.31306440e-01, 0., 1.31306440e-01, 1.31306440e-01, 0.,
          1.31306440e-01, 1.31306440e-01, 0., 1.31306440e-01,
          1.31306440e-01, 1.31306440e-01, 1.31306440e-01, 1.31306440e-01,
          1.31306440e-01, 1.31306440e-01, 1.31306440e-01, 1.31306440e-01,
          1.31306440e-01, 1.31306440e-01, 1.31306440e-01, 0.,
          1.31306440e-01, 1.31306440e-01, 1.31306440e-01, 1.31306440e-01,
          1.31306440e-01, 1.31306440e-01, 1.31306440e-01, 1.31306440e-01,
          1.31306440e-01, 0., 0., 1.31306440e-01, 1.31306440e-01,
          1.31306440e-01, 1.31306440e-01, 1.31306440e-01, 1.31306440e-01,
          1.31306440e-01, 1.31306440e-01, 0., 1.31306440e-01,
          1.31306440e-01, 1.31306440e-01, 1.31306440e-01, 1.31306440e-01,
          0., 1.31306440e-01, 1.31306440e-01, 1.31306440e-01, 0.,
          1.31306440e-01, 1.31306440e-01 ]
      - [ 0., 2.35702261e-01, 0., 0., 2.35702261e-01, 2.35702261e-01, 0.,
          0., 0., 2.35702261e-01, 2.35702261e-01, 2.35702261e-01, 0., 0.,
          0., 0., 0., 0., 0., 0., 0., 2.35702261e-01, 2.35702261e-01, 0.,
          0., 0., 0., 0., 0., 0., 0., 0., 0., 2.35702261e-01, 0.,
          2.35702261e-01, 0., 0., 0., 2.35702261e-01, 0., 0., 0.,
          2.35702261e-01, 2.35702261e-01, 0., 2.35702261e-01,
          2.35702261e-01, 2.35702261e-01, 0., 0., 0., 2.35702261e-01, 0.,
          0., 0., 0., 0., 0., 0., 0., 0., 0., 0., 0., 0., 2.35702261e-01,
          0., 0., 0. ]
      - [ 0., 0., 1.45864993e-01, 0., 1.45864993e-01, 1.45864993e-01,
          1.45864993e-01, 1.45864993e-01, 1.45864993e-01, 1.45864993e-01,
          1.45864993e-01, 1.45864993e-01, 1.45864993e-01, 1.45864993e-01,
          1.45864993e-01, 0., 0., 1.45864993e-01, 0., 0., 1.45864993e-01,
          0., 1.45864993e-01, 1.45864993e-01, 1.45864993e-01, 0.,
          1.45864993e-01, 1.45864993e-01, 1.45864993e-01, 1.45864993e-01,
          0., 1.45864993e-01, 1.45864993e-01, 1.45864993e-01, 0.,
          1.45864993e-01, 0., 0., 1.45864993e-01, 1.45864993e-01,
          1.45864993e-01, 1.45864993e-01, 0., 1.45864993e-01,
          1.45864993e-01, 1.45864993e-01, 1.45864993e-01, 1.45864993e-01,
          1.45864993e-01, 1.45864993e-01, 1.45864993e-01, 1.45864993e-01,
          1.45864993e-01, 1.45864993e-01, 0., 0., 1.45864993e-01, 0., 0.,
          0., 0., 1.45864993e-01, 1.45864993e-01, 1.45864993e-01, 0., 0.,
          1.45864993e-01, 0., 1.45864993e-01, 1.45864993e-01 ]
      - [ 0., 0., 0., 0., 2.18217894e-01, 2.18217894e-01, 2.18217894e-01,
          0., 0., 0., 0., 0., 0., 0., 0., 0., 0., 0., 0., 0., 0., 0.,
          2.18217894e-01, 2.18217894e-01, 2.18217894e-01, 2.18217894e-01,
          0., 0., 0., 0., 0., 2.18217894e-01, 2.18217894e-01,
          2.18217894e-01, 0., 0., 2.18217894e-01, 2.18217894e-01,
          2.18217894e-01, 0., 0., 0., 0., 2.18217894e-01, 0., 0., 0.,
          2.18217894e-01, 0., 0., 0., 0., 0., 0., 0., 2.18217894e-01, 0.,
          2.18217894e-01, 0., 0., 0., 0., 0., 0., 2.18217894e-01,
          2.18217894e-01, 2.18217894e-01, 0., 2.18217894e-01, 0. ]
      - [ 0., 1.71498582e-01, 1.71498582e-01, 1.71498582e-01,
          1.71498582e-01, 1.71498582e-01, 1.71498582e-01, 0., 0.,
          1.71498582e-01, 1.71498582e-01, 0., 1.71498582e-01,
          1.71498582e-01, 0., 0., 1.71498582e-01, 1.71498582e-01, 0., 0.,
          0., 0., 0., 0., 1.71498582e-01, 0., 1.71498582e-01,
          1.71498582e-01, 0., 0., 0., 0., 0., 1.71498582e-01, 0., 0.,
          1.71498582e-01, 1.71498582e-01, 1.71498582e-01, 1.71498582e-01,
          1.71498582e-01, 0., 0., 0., 1.71498582e-01, 0., 1.71498582e-01,
          1.71498582e-01, 0., 1.71498582e-01, 1.71498582e-01,
          1.71498582e-01, 1.71498582e-01, 1.71498582e-01, 0.,
          1.71498582e-01, 0., 0., 0., 0., 0., 0., 1.71498582e-01,
          1.71498582e-01, 0., 0., 1.71498582e-01, 0., 0., 1.71498582e-01 ]
      - [ 1.25000000e-01, 1.25000000e-01, 1.25000000e-01, 0.,
          1.25000000e-01, 1.25000000e-01, 1.25000000e-01, 1.25000000e-01,
          1.25000000e-01, 1.25000000e-01, 1.25000000e-01, 1.25000000e-01,
          1.25000000e-01, 1.25000000e-01, 1.25000000e-01, 1.25000000e-01,
          1.25000000e-01, 0., 1.25000000e-01, 1.25000000e-01,
          1.25000000e-01, 1.25000000e-01, 1.25000000e-01, 1.25000000e-01,
          0., 1.25000000e-01, 1.25000000e-01, 1.25000000e-01,
          1.25000000e-01, 1.25000000e-01, 1.25000000e-01, 1.25000000e-01,
          1.25000000e-01, 1.25000000e-01, 1.25000000e-01, 1.25000000e-01,
          1.25000000e-01, 1.25000000e-01, 0., 1.25000000e-01, 0.,
          1.25000000e-01, 1.25000000e-01, 1.25000000e-01, 1.25000000e-01,
          1.25000000e-01, 1.25000000e-01, 1.25000000e-01, 0.,
          1.25000000e-01, 1.25000000e-01, 1.25000000e-01, 1.25000000e-01,
          1.25000000e-01, 1.25000000e-01, 1.25000000e-01, 1.25000000e-01,
          1.25000000e-01, 1.25000000e-01, 1.25000000e-01, 1.25000000e-01,
          1.25000000e-01, 1.25000000e-01, 1.25000000e-01, 1.25000000e-01,
          1.25000000e-01, 1.25000000e-01, 1.25000000e-01, 1.25000000e-01,
          1.25000000e-01 ]
      - [ 1.27000123e-01, 1.27000123e-01, 1.27000123e-01, 1.27000123e-01,
          1.27000123e-01, 1.27000123e-01, 1.27000123e-01, 1.27000123e-01,
          0., 1.27000123e-01, 1.27000123e-01, 1.27000123e-01,
          1.27000123e-01, 1.27000123e-01, 1.27000123e-01, 0., 0., 0.,
          1.27000123e-01, 1.27000123e-01, 1.27000123e-01, 1.27000123e-01,
          1.27000123e-01, 1.27000123e-01, 1.27000123e-01, 1.27000123e-01,
          1.27000123e-01, 1.27000123e-01, 1.27000123e-01, 1.27000123e-01,
          1.27000123e-01, 1.27000123e-01, 1.27000123e-01, 1.27000123e-01,
          1.27000123e-01, 1.27000123e-01, 1.27000123e-01, 1.27000123e-01,
          0., 1.27000123e-01, 1.27000123e-01, 1.27000123e-01,
          1.27000123e-01, 1.27000123e-01, 1.27000123e-01, 1.27000123e-01,
          1.27000123e-01, 1.27000123e-01, 1.27000123e-01, 1.27000123e-01,
          0., 1.27000123e-01, 1.27000123e-01, 1.27000123e-01,
          1.27000123e-01, 1.27000123e-01, 1.27000123e-01, 0.,
          1.27000123e-01, 1.27000123e-01, 0., 1.27000123e-01,
          1.27000123e-01, 1.27000123e-01, 1.27000123e-01, 1.27000123e-01,
          1.27000123e-01, 1.27000123e-01, 1.27000123e-01, 1.27000123e-01 ]
      - [ 1.34839967e-01, 1.34839967e-01, 1.34839967e-01, 0.,
          1.34839967e-01, 1.34839967e-01, 1.34839967e-01, 1.34839967e-01,
          0., 1.34839967e-01, 1.34839967e-01, 1.34839967e-01,
          1.34839967e-01, 1.34839967e-01, 1.34839967e-01, 1.34839967e-01,
          1.34839967e-01, 1.34839967e-01, 1.34839967e-01, 0.,
          1.34839967e-01, 1.34839967e-01, 1.34839967e-01, 0., 0.,
          1.34839967e-01, 0., 1.34839967e-01, 1.34839967e-01,
          1.34839967e-01, 0., 1.34839967e-01, 1.34839967e-01,
          1.34839967e-01, 0., 1.34839967e-01, 1.34839967e-01,
          1.34839967e-01, 1.34839967e-01, 1.34839967e-01, 1.34839967e-01,
          1.34839967e-01, 1.34839967e-01, 1.34839967e-01, 1.34839967e-01,
          1.34839967e-01, 1.34839967e-01, 1.34839967e-01, 1.34839967e-01,
          1.34839967e-01, 1.34839967e-01, 1.34839967e-01, 1.34839967e-01,
          1.34839967e-01, 1.34839967e-01, 0., 1.34839967e-01, 0.,
          1.34839967e-01, 1.34839967e-01, 1.34839967e-01, 0.,
          1.34839967e-01, 0., 1.34839967e-01, 0., 1.34839967e-01, 0., 0.,
          1.34839967e-01 ]
      - [ 0., 1.36082768e-01, 1.36082768e-01, 0., 1.36082768e-01,
          1.36082768e-01, 1.36082768e-01, 0., 1.36082768e-01,
          1.36082768e-01, 1.36082768e-01, 1.36082768e-01, 1.36082768e-01,
          1.36082768e-01, 0., 1.36082768e-01, 0., 1.36082768e-01, 0.,
          1.36082768e-01, 0., 1.36082768e-01, 1.36082768e-01,
          1.36082768e-01, 1.36082768e-01, 0., 1.36082768e-01,
          1.36082768e-01, 1.36082768e-01, 1.36082768e-01, 1.36082768e-01,
          1.36082768e-01, 1.36082768e-01, 1.36082768e-01, 1.36082768e-01,
          1.36082768e-01, 0., 1.36082768e-01, 1.36082768e-01,
          1.36082768e-01, 1.36082768e-01, 1.36082768e-01, 0.,
          1.36082768e-01, 0., 1.36082768e-01, 1.36082768e-01,
          1.36082768e-01, 1.36082768e-01, 1.36082768e-01, 1.36082768e-01,
          1.36082768e-01, 1.36082768e-01, 1.36082768e-01, 1.36082768e-01,
          1.36082768e-01, 1.36082768e-01, 0., 1.36082768e-01, 0., 0.,
          1.36082768e-01, 1.36082768e-01, 1.36082768e-01, 0.,
          1.36082768e-01, 1.36082768e-01, 0., 1.36082768e-01,
          1.36082768e-01 ]
      - [ 0., 1.76776692e-01, 1.76776692e-01, 0., 1.76776692e-01,
          1.76776692e-01, 0., 0., 0., 0., 0., 0., 1.76776692e-01,
          1.76776692e-01, 0., 1.76776692e-01, 1.76776692e-01, 0., 0.,
          1.76776692e-01, 0., 0., 1.76776692e-01, 0., 1.76776692e-01, 0.,
          0., 1.76776692e-01, 1.76776692e-01, 0., 0., 0., 1.76776692e-01,
          0., 0., 0., 0., 1.76776692e-01, 1.76776692e-01, 0.,
          1.76776692e-01, 0., 0., 1.76776692e-01, 0., 1.76776692e-01,
          1.76776692e-01, 1.76776692e-01, 0., 1.76776692e-01,
          1.76776692e-01, 1.76776692e-01, 1.76776692e-01, 1.76776692e-01,
          0., 0., 0., 0., 0., 1.76776692e-01, 1.76776692e-01,
          1.76776692e-01, 1.76776692e-01, 0., 1.76776692e-01,
          1.76776692e-01, 0., 0., 0., 0. ]
      - [ 0., 1.37360558e-01, 1.37360558e-01, 0., 1.37360558e-01,
          1.37360558e-01, 1.37360558e-01, 1.37360558e-01, 0.,
          1.37360558e-01, 1.37360558e-01, 0., 1.37360558e-01,
          1.37360558e-01, 1.37360558e-01, 0., 0., 1.37360558e-01,
          1.37360558e-01, 1.37360558e-01, 1.37360558e-01, 1.37360558e-01,
          1.37360558e-01, 1.37360558e-01, 1.37360558e-01, 1.37360558e-01,
          1.37360558e-01, 1.37360558e-01, 1.37360558e-01, 1.37360558e-01,
          1.37360558e-01, 1.37360558e-01, 0., 1.37360558e-01, 0.,
          1.37360558e-01, 1.37360558e-01, 0., 1.37360558e-01,
          1.37360558e-01, 1.37360558e-01, 1.37360558e-01, 1.37360558e-01,
          1.37360558e-01, 1.37360558e-01, 1.37360558e-01, 1.37360558e-01,
          1.37360558e-01, 1.37360558e-01, 0., 1.37360558e-01,
          1.37360558e-01, 1.37360558e-01, 0., 1.37360558e-01,
          1.37360558e-01, 0., 0., 1.37360558e-01, 1.37360558e-01, 0., 0.,
          1.37360558e-01, 1.37360558e-01, 1.37360558e-01, 1.37360558e-01,
          1.37360558e-01, 0., 0., 1.37360558e-01 ]
      - [ 1.71498582e-01, 1.71498582e-01, 0., 0., 1.71498582e-01, 0.,
          1.71498582e-01, 0., 0., 1.71498582e-01, 1.71498582e-01, 0.,
          1.71498582e-01, 1.71498582e-01, 0., 0., 1.71498582e-01, 0., 0.,
          1.71498582e-01, 0., 0., 0., 1.71498582e-01, 1.71498582e-01, 0.,
          1.71498582e-01, 0., 0., 0., 0., 1.71498582e-01, 1.71498582e-01,
          1.71498582e-01, 1.71498582e-01, 1.71498582e-01, 1.71498582e-01,
          0., 0., 1.71498582e-01, 1.71498582e-01, 1.71498582e-01, 0.,
          1.71498582e-01, 0., 1.71498582e-01, 1.71498582e-01,
          1.71498582e-01, 1.71498582e-01, 1.71498582e-01, 0., 0., 0., 0.,
          1.71498582e-01, 0., 0., 0., 1.71498582e-01, 0., 0., 0.,
          1.71498582e-01, 0., 0., 0., 1.71498582e-01, 1.71498582e-01, 0.,
          1.71498582e-01 ]
      - [ 0., 0., 1.45864993e-01, 1.45864993e-01, 0., 1.45864993e-01,
          1.45864993e-01, 1.45864993e-01, 1.45864993e-01, 1.45864993e-01,
          1.45864993e-01, 0., 0., 1.45864993e-01, 0., 1.45864993e-01,
          1.45864993e-01, 1.45864993e-01, 0., 0., 1.45864993e-01,
          1.45864993e-01, 0., 0., 1.45864993e-01, 1.45864993e-01, 0., 0.,
          0., 1.45864993e-01, 0., 1.45864993e-01, 1.45864993e-01,
          1.45864993e-01, 0., 1.45864993e-01, 1.45864993e-01,
          1.45864993e-01, 1.45864993e-01, 1.45864993e-01, 1.45864993e-01,
          1.45864993e-01, 1.45864993e-01, 0., 1.45864993e-01, 0.,
          1.45864993e-01, 1.45864993e-01, 1.45864993e-01, 1.45864993e-01,
          0., 1.45864993e-01, 0., 1.45864993e-01, 1.45864993e-01,
          1.45864993e-01, 0., 1.45864993e-01, 1.45864993e-01, 0., 0.,
          1.45864993e-01, 1.45864993e-01, 1.45864993e-01, 1.45864993e-01,
          1.45864993e-01, 1.45864993e-01, 0., 1.45864993e-01,
          1.45864993e-01 ]
      - [ 1.69030845e-01, 1.69030845e-01, 0., 1.69030845e-01,
          1.69030845e-01, 1.69030845e-01, 1.69030845e-01, 1.69030845e-01,
          0., 0., 1.69030845e-01, 1.69030845e-01, 1.69030845e-01, 0.,
          1.69030845e-01, 0., 0., 1.69030845e-01, 1.69030845e-01, 0., 0.,
          0., 0., 1.69030845e-01, 1.69030845e-01, 0., 0., 0., 0., 0., 0.,
          0., 1.69030845e-01, 1.69030845e-01, 0., 1.69030845e-01, 0.,
          1.69030845e-01, 1.69030845e-01, 1.69030845e-01, 0., 0., 0.,
          1.69030845e-01, 1.69030845e-01, 0., 1.69030845e-01,
          1.69030845e-01, 0., 1.69030845e-01, 1.69030845e-01,
          1.69030845e-01, 0., 0., 0., 1.69030845e-01, 0., 1.69030845e-01,
          1.69030845e-01, 0., 0., 1.69030845e-01, 0., 0., 1.69030845e-01,
          0., 1.69030845e-01, 0., 0., 1.69030845e-01 ]
      - [ 1.37360558e-01, 1.37360558e-01, 1.37360558e-01, 1.37360558e-01,
          1.37360558e-01, 1.37360558e-01, 1.37360558e-01, 1.37360558e-01,
          0., 1.37360558e-01, 1.37360558e-01, 1.37360558e-01,
          1.37360558e-01, 1.37360558e-01, 1.37360558e-01, 1.37360558e-01,
          1.37360558e-01, 1.37360558e-01, 0., 1.37360558e-01, 0., 0.,
          1.37360558e-01, 0., 1.37360558e-01, 1.37360558e-01,
          1.37360558e-01, 0., 1.37360558e-01, 1.37360558e-01,
          1.37360558e-01, 1.37360558e-01, 1.37360558e-01, 1.37360558e-01,
          0., 1.37360558e-01, 1.37360558e-01, 1.37360558e-01,
          1.37360558e-01, 1.37360558e-01, 1.37360558e-01, 1.37360558e-01,
          1.37360558e-01, 1.37360558e-01, 1.37360558e-01, 1.37360558e-01,
          1.37360558e-01, 0., 1.37360558e-01, 1.37360558e-01,
          1.37360558e-01, 0., 0., 1.37360558e-01, 1.37360558e-01,
          1.37360558e-01, 0., 0., 1.37360558e-01, 0., 0., 0.,
          1.37360558e-01, 1.37360558e-01, 0., 1.37360558e-01,
          1.37360558e-01, 0., 1.37360558e-01, 1.37360558e-01 ]
      - [ 0., 1.66666672e-01, 1.66666672e-01, 0., 1.66666672e-01,
          1.66666672e-01, 0., 0., 1.66666672e-01, 1.66666672e-01,
          1.66666672e-01, 1.66666672e-01, 0., 0., 0., 1.66666672e-01, 0.,
          1.66666672e-01, 0., 0., 1.66666672e-01, 0., 1.66666672e-01, 0.,
          0., 0., 1.66666672e-01, 0., 1.66666672e-01, 1.66666672e-01,
          1.66666672e-01, 0., 1.66666672e-01, 1.66666672e-01, 0.,
          1.66666672e-01, 0., 1.66666672e-01, 1.66666672e-01,
          1.66666672e-01, 0., 1.66666672e-01, 0., 1.66666672e-01, 0., 0.,
          1.66666672e-01, 0., 0., 1.66666672e-01, 1.66666672e-01, 0., 0.,
          0., 1.66666672e-01, 0., 0., 0., 0., 1.66666672e-01, 0., 0.,
          1.66666672e-01, 1.66666672e-01, 1.66666672e-01, 1.66666672e-01,
          1.66666672e-01, 1.66666672e-01, 0., 1.66666672e-01 ]
      - [ 0., 0., 0., 0., 1.79605305e-01, 1.79605305e-01, 1.79605305e-01,
          1.79605305e-01, 0., 0., 1.79605305e-01, 0., 0., 1.79605305e-01,
          1.79605305e-01, 0., 1.79605305e-01, 0., 0., 0., 1.79605305e-01,
          0., 0., 0., 0., 0., 0., 0., 1.79605305e-01, 0., 1.79605305e-01,
          1.79605305e-01, 1.79605305e-01, 1.79605305e-01, 0.,
          1.79605305e-01, 1.79605305e-01, 1.79605305e-01, 0.,
          1.79605305e-01, 0., 1.79605305e-01, 0., 0., 1.79605305e-01, 0.,
          1.79605305e-01, 1.79605305e-01, 1.79605305e-01, 1.79605305e-01,
          0., 0., 0., 0., 1.79605305e-01, 0., 0., 0., 1.79605305e-01, 0.,
          0., 0., 1.79605305e-01, 1.79605305e-01, 0., 1.79605305e-01,
          1.79605305e-01, 0., 0., 1.79605305e-01 ]
      - [ 1.31306440e-01, 1.31306440e-01, 1.31306440e-01, 1.31306440e-01,
          1.31306440e-01, 1.31306440e-01, 1.31306440e-01, 1.31306440e-01,
          0., 1.31306440e-01, 1.31306440e-01, 1.31306440e-01,
          1.31306440e-01, 1.31306440e-01, 1.31306440e-01, 1.31306440e-01,
          1.31306440e-01, 1.31306440e-01, 1.31306440e-01, 1.31306440e-01,
          0., 1.31306440e-01, 1.31306440e-01, 0., 1.31306440e-01,
          1.31306440e-01, 0., 1.31306440e-01, 1.31306440e-01,
          1.31306440e-01, 1.31306440e-01, 1.31306440e-01, 1.31306440e-01,
          1.31306440e-01, 0., 1.31306440e-01, 1.31306440e-01, 0., 0.,
          1.31306440e-01, 1.31306440e-01, 1.31306440e-01, 1.31306440e-01,
          1.31306440e-01, 1.31306440e-01, 1.31306440e-01, 1.31306440e-01,
          1.31306440e-01, 0., 1.31306440e-01, 0., 1.31306440e-01,
          1.31306440e-01, 1.31306440e-01, 1.31306440e-01, 1.31306440e-01,
          0., 0., 1.31306440e-01, 1.31306440e-01, 1.31306440e-01,
          1.31306440e-01, 1.31306440e-01, 1.31306440e-01, 0.,
          1.31306440e-01, 1.31306440e-01, 1.31306440e-01, 1.31306440e-01,
          1.31306440e-01 ]
      - [ 1.50755674e-01, 1.50755674e-01, 1.50755674e-01, 1.50755674e-01,
          1.50755674e-01, 1.50755674e-01, 1.50755674e-01, 0.,
          1.50755674e-01, 1.50755674e-01, 1.50755674e-01, 1.50755674e-01,
          1.50755674e-01, 1.50755674e-01, 0., 0., 1.50755674e-01,
          1.50755674e-01, 0., 0., 1.50755674e-01, 1.50755674e-01,
          1.50755674e-01, 0., 0., 0., 0., 0., 1.50755674e-01, 0.,
          1.50755674e-01, 1.50755674e-01, 0., 1.50755674e-01, 0.,
          1.50755674e-01, 1.50755674e-01, 0., 0., 1.50755674e-01,
          1.50755674e-01, 1.50755674e-01, 0., 0., 0., 1.50755674e-01,
          1.50755674e-01, 0., 0., 1.50755674e-01, 0., 1.50755674e-01,
          1.50755674e-01, 0., 1.50755674e-01, 1.50755674e-01,
          1.50755674e-01, 0., 1.50755674e-01, 1.50755674e-01, 0.,
          1.50755674e-01, 0., 1.50755674e-01, 1.50755674e-01,
          1.50755674e-01, 1.50755674e-01, 0., 1.50755674e-01,
          1.50755674e-01 ]
      - [ 0., 0., 0., 0., 0., 0., 0., 1.88982233e-01, 0., 1.88982233e-01,
          0., 1.88982233e-01, 0., 1.88982233e-01, 0., 0., 0., 0., 0., 0.,
          0., 1.88982233e-01, 0., 0., 1.88982233e-01, 1.88982233e-01, 0.,
          0., 0., 1.88982233e-01, 1.88982233e-01, 0., 0., 0., 0., 0., 0.,
          0., 1.88982233e-01, 1.88982233e-01, 1.88982233e-01,
          1.88982233e-01, 1.88982233e-01, 1.88982233e-01, 0., 0.,
          1.88982233e-01, 1.88982233e-01, 0., 1.88982233e-01, 0.,
          1.88982233e-01, 1.88982233e-01, 0., 1.88982233e-01, 0., 0.,
          1.88982233e-01, 1.88982233e-01, 0., 0., 0., 1.88982233e-01,
          1.88982233e-01, 0., 1.88982233e-01, 0., 1.88982233e-01,
          1.88982233e-01, 0. ]
      - [ 1.40028015e-01, 1.40028015e-01, 0., 1.40028015e-01, 0.,
          1.40028015e-01, 1.40028015e-01, 1.40028015e-01, 1.40028015e-01,
          1.40028015e-01, 1.40028015e-01, 0., 1.40028015e-01,
          1.40028015e-01, 0., 1.40028015e-01, 1.40028015e-01,
          1.40028015e-01, 0., 0., 1.40028015e-01, 0., 1.40028015e-01,
          1.40028015e-01, 1.40028015e-01, 0., 0., 1.40028015e-01,
          1.40028015e-01, 1.40028015e-01, 1.40028015e-01, 1.40028015e-01,
          1.40028015e-01, 0., 1.40028015e-01, 1.40028015e-01,
          1.40028015e-01, 1.40028015e-01, 0., 1.40028015e-01,
          1.40028015e-01, 1.40028015e-01, 1.40028015e-01, 1.40028015e-01,
          1.40028015e-01, 1.40028015e-01, 1.40028015e-01, 1.40028015e-01,
          0., 0., 1.40028015e-01, 1.40028015e-01, 0., 1.40028015e-01,
          1.40028015e-01, 1.40028015e-01, 0., 0., 1.40028015e-01,
          1.40028015e-01, 1.40028015e-01, 1.40028015e-01, 1.40028015e-01,
          0., 0., 1.40028015e-01, 1.40028015e-01, 0., 1.40028015e-01,
          1.40028015e-01 ]
      - [ 1.40028015e-01, 1.40028015e-01, 0., 0., 1.40028015e-01,
          1.40028015e-01, 1.40028015e-01, 1.40028015e-01, 1.40028015e-01,
          1.40028015e-01, 0., 0., 1.40028015e-01, 1.40028015e-01,
          1.40028015e-01, 1.40028015e-01, 0., 0., 0., 1.40028015e-01,
          1.40028015e-01, 1.40028015e-01, 1.40028015e-01, 1.40028015e-01,
          1.40028015e-01, 1.40028015e-01, 0., 0., 1.40028015e-01,
          1.40028015e-01, 1.40028015e-01, 0., 1.40028015e-01,
          1.40028015e-01, 0., 1.40028015e-01, 1.40028015e-01, 0., 0., 0.,
          1.40028015e-01, 1.40028015e-01, 1.40028015e-01, 0.,
          1.40028015e-01, 1.40028015e-01, 1.40028015e-01, 0.,
          1.40028015e-01, 1.40028015e-01, 1.40028015e-01, 1.40028015e-01,
          1.40028015e-01, 1.40028015e-01, 1.40028015e-01, 1.40028015e-01,
          1.40028015e-01, 0., 1.40028015e-01, 1.40028015e-01,
          1.40028015e-01, 0., 1.40028015e-01, 1.40028015e-01, 0.,
          1.40028015e-01, 1.40028015e-01, 1.40028015e-01, 1.40028015e-01,
          1.40028015e-01 ]
      - [ 1.25988156e-01, 1.25988156e-01, 1.25988156e-01, 1.25988156e-01,
          1.25988156e-01, 1.25988156e-01, 0., 1.25988156e-01,
          1.25988156e-01, 1.25988156e-01, 1.25988156e-01, 1.25988156e-01,
          1.25988156e-01, 1.25988156e-01, 1.25988156e-01, 1.25988156e-01,
          0., 0., 1.25988156e-01, 1.25988156e-01, 1.25988156e-01,
          1.25988156e-01, 1.25988156e-01, 1.25988156e-01, 1.25988156e-01,
          1.25988156e-01, 1.25988156e-01, 1.25988156e-01, 1.25988156e-01,
          1.25988156e-01, 1.25988156e-01, 1.25988156e-01, 1.25988156e-01,
          1.25988156e-01, 1.25988156e-01, 1.25988156e-01, 1.25988156e-01,
          1.25988156e-01, 1.25988156e-01, 1.25988156e-01, 1.25988156e-01,
          1.25988156e-01, 1.25988156e-01, 1.25988156e-01, 0.,
          1.25988156e-01, 1.25988156e-01, 1.25988156e-01, 1.25988156e-01,
          1.25988156e-01, 0., 1.25988156e-01, 1.25988156e-01,
          1.25988156e-01, 1.25988156e-01, 1.25988156e-01, 1.25988156e-01,
          1.25988156e-01, 0., 0., 1.25988156e-01, 1.25988156e-01,
          1.25988156e-01, 1.25988156e-01, 1.25988156e-01, 1.25988156e-01,
          1.25988156e-01, 1.25988156e-01, 1.25988156e-01, 1.25988156e-01 ]
      - [ 0., 1.71498582e-01, 0., 0., 0., 0., 1.71498582e-01, 0., 0.,
          1.71498582e-01, 1.71498582e-01, 0., 1.71498582e-01, 0., 0.,
          1.71498582e-01, 0., 1.71498582e-01, 1.71498582e-01, 0.,
          1.71498582e-01, 1.71498582e-01, 0., 0., 0., 0., 0.,
          1.71498582e-01, 0., 1.71498582e-01, 1.71498582e-01, 0.,
          1.71498582e-01, 1.71498582e-01, 0., 1.71498582e-01,
          1.71498582e-01, 0., 1.71498582e-01, 0., 0., 0., 0., 0.,
          1.71498582e-01, 1.71498582e-01, 1.71498582e-01, 1.71498582e-01,
          1.71498582e-01, 1.71498582e-01, 0., 1.71498582e-01,
          1.71498582e-01, 1.71498582e-01, 1.71498582e-01, 0., 0., 0.,
          1.71498582e-01, 0., 0., 1.71498582e-01, 0., 1.71498582e-01, 0.,
          1.71498582e-01, 1.71498582e-01, 0., 1.71498582e-01, 0. ]
      - [ 0., 0., 0., 0., 0., 1.66666672e-01, 1.66666672e-01, 0., 0.,
          1.66666672e-01, 1.66666672e-01, 1.66666672e-01, 1.66666672e-01,
          1.66666672e-01, 0., 0., 0., 0., 1.66666672e-01, 0., 0., 0., 0.,
          1.66666672e-01, 1.66666672e-01, 0., 1.66666672e-01, 0.,
          1.66666672e-01, 1.66666672e-01, 1.66666672e-01, 1.66666672e-01,
          0., 1.66666672e-01, 0., 1.66666672e-01, 0., 0., 1.66666672e-01,
          0., 1.66666672e-01, 1.66666672e-01, 0., 0., 0., 1.66666672e-01,
          1.66666672e-01, 0., 0., 0., 1.66666672e-01, 1.66666672e-01,
          1.66666672e-01, 1.66666672e-01, 1.66666672e-01, 0., 0., 0.,
          1.66666672e-01, 1.66666672e-01, 0., 0., 1.66666672e-01,
          1.66666672e-01, 1.66666672e-01, 1.66666672e-01, 1.66666672e-01,
          1.66666672e-01, 0., 1.66666672e-01 ]
      - [ 1.45864993e-01, 1.45864993e-01, 1.45864993e-01, 0., 0.,
          1.45864993e-01, 1.45864993e-01, 0., 0., 1.45864993e-01,
          1.45864993e-01, 0., 1.45864993e-01, 1.45864993e-01,
          1.45864993e-01, 0., 1.45864993e-01, 0., 0., 0., 1.45864993e-01,
          1.45864993e-01, 0., 1.45864993e-01, 0., 0., 1.45864993e-01,
          1.45864993e-01, 1.45864993e-01, 1.45864993e-01, 1.45864993e-01,
          0., 0., 0., 0., 1.45864993e-01, 1.45864993e-01, 1.45864993e-01,
          1.45864993e-01, 1.45864993e-01, 1.45864993e-01, 1.45864993e-01,
          0., 1.45864993e-01, 0., 1.45864993e-01, 1.45864993e-01,
          1.45864993e-01, 1.45864993e-01, 1.45864993e-01, 1.45864993e-01,
          1.45864993e-01, 1.45864993e-01, 0., 0., 1.45864993e-01, 0., 0.,
          1.45864993e-01, 0., 1.45864993e-01, 1.45864993e-01,
          1.45864993e-01, 1.45864993e-01, 1.45864993e-01, 1.45864993e-01,
          1.45864993e-01, 1.45864993e-01, 1.45864993e-01, 1.45864993e-01 ]
      - [ 1.24034733e-01, 1.24034733e-01, 1.24034733e-01, 0.,
          1.24034733e-01, 1.24034733e-01, 1.24034733e-01, 1.24034733e-01,
          1.24034733e-01, 1.24034733e-01, 1.24034733e-01, 1.24034733e-01,
          1.24034733e-01, 1.24034733e-01, 1.24034733e-01, 1.24034733e-01,
          1.24034733e-01, 1.24034733e-01, 1.24034733e-01, 1.24034733e-01,
          0., 1.24034733e-01, 1.24034733e-01, 1.24034733e-01,
          1.24034733e-01, 1.24034733e-01, 1.24034733e-01, 1.24034733e-01,
          1.24034733e-01, 1.24034733e-01, 1.24034733e-01, 1.24034733e-01,
          1.24034733e-01, 1.24034733e-01, 1.24034733e-01, 1.24034733e-01,
          1.24034733e-01, 1.24034733e-01, 0., 1.24034733e-01,
          1.24034733e-01, 1.24034733e-01, 1.24034733e-01, 1.24034733e-01,
          1.24034733e-01, 1.24034733e-01, 1.24034733e-01, 1.24034733e-01,
          1.24034733e-01, 1.24034733e-01, 1.24034733e-01, 1.24034733e-01,
          0., 1.24034733e-01, 1.24034733e-01, 1.24034733e-01,
          1.24034733e-01, 1.24034733e-01, 1.24034733e-01, 1.24034733e-01,
          1.24034733e-01, 1.24034733e-01, 1.24034733e-01, 1.24034733e-01,
          1.24034733e-01, 0., 1.24034733e-01, 1.24034733e-01,
          1.24034733e-01, 1.24034733e-01 ]
      - [ 0., 2.04124153e-01, 2.04124153e-01, 0., 0., 0., 0., 0., 0.,
          2.04124153e-01, 2.04124153e-01, 0., 2.04124153e-01, 0., 0., 0.,
          0., 0., 2.04124153e-01, 0., 0., 0., 0., 2.04124153e-01, 0., 0.,
          0., 0., 2.04124153e-01, 2.04124153e-01, 0., 0., 0., 0.,
          2.04124153e-01, 2.04124153e-01, 2.04124153e-01, 0., 0.,
          2.04124153e-01, 0., 0., 2.04124153e-01, 0., 0., 2.04124153e-01,
          2.04124153e-01, 0., 2.04124153e-01, 2.04124153e-01, 0., 0., 0.,
          2.04124153e-01, 0., 0., 0., 0., 0., 2.04124153e-01,
          2.04124153e-01, 0., 2.04124153e-01, 0., 0., 0., 2.04124153e-01,
          2.04124153e-01, 0., 0. ]
      - [ 1.64398983e-01, 1.64398983e-01, 0., 0., 1.64398983e-01,
          1.64398983e-01, 1.64398983e-01, 0., 1.64398983e-01,
          1.64398983e-01, 1.64398983e-01, 1.64398983e-01, 0.,
          1.64398983e-01, 1.64398983e-01, 0., 0., 1.64398983e-01, 0., 0.,
          0., 0., 0., 0., 1.64398983e-01, 1.64398983e-01, 1.64398983e-01,
          0., 1.64398983e-01, 1.64398983e-01, 0., 1.64398983e-01, 0., 0.,
          0., 1.64398983e-01, 1.64398983e-01, 0., 0., 0., 1.64398983e-01,
          1.64398983e-01, 0., 1.64398983e-01, 1.64398983e-01,
          1.64398983e-01, 1.64398983e-01, 1.64398983e-01, 0.,
          1.64398983e-01, 0., 1.64398983e-01, 1.64398983e-01, 0., 0.,
          1.64398983e-01, 0., 1.64398983e-01, 1.64398983e-01, 0.,
          1.64398983e-01, 0., 0., 0., 1.64398983e-01, 0., 1.64398983e-01,
          0., 1.64398983e-01, 0. ]
      - [ 1.52498573e-01, 1.52498573e-01, 1.52498573e-01, 0.,
          1.52498573e-01, 1.52498573e-01, 0., 1.52498573e-01,
          1.52498573e-01, 1.52498573e-01, 1.52498573e-01, 1.52498573e-01,
          1.52498573e-01, 1.52498573e-01, 1.52498573e-01, 0., 0.,
          1.52498573e-01, 1.52498573e-01, 1.52498573e-01, 0., 0., 0., 0.,
          0., 0., 1.52498573e-01, 0., 1.52498573e-01, 1.52498573e-01,
          1.52498573e-01, 1.52498573e-01, 1.52498573e-01, 1.52498573e-01,
          0., 0., 0., 0., 1.52498573e-01, 1.52498573e-01, 1.52498573e-01,
          1.52498573e-01, 0., 0., 1.52498573e-01, 1.52498573e-01,
          1.52498573e-01, 1.52498573e-01, 0., 0., 1.52498573e-01,
          1.52498573e-01, 1.52498573e-01, 0., 1.52498573e-01, 0., 0., 0.,
          1.52498573e-01, 1.52498573e-01, 1.52498573e-01, 0.,
          1.52498573e-01, 0., 0., 0., 1.52498573e-01, 1.52498573e-01,
          1.52498573e-01, 1.52498573e-01 ]
      - [ 0., 1.58113882e-01, 1.58113882e-01, 0., 0., 0., 1.58113882e-01,
          1.58113882e-01, 1.58113882e-01, 1.58113882e-01, 1.58113882e-01,
          1.58113882e-01, 1.58113882e-01, 0., 1.58113882e-01,
          1.58113882e-01, 0., 0., 1.58113882e-01, 1.58113882e-01,
          1.58113882e-01, 0., 0., 0., 1.58113882e-01, 0., 1.58113882e-01,
          1.58113882e-01, 1.58113882e-01, 1.58113882e-01, 0.,
          1.58113882e-01, 0., 1.58113882e-01, 1.58113882e-01,
          1.58113882e-01, 0., 0., 0., 1.58113882e-01, 0., 0., 0., 0.,
          1.58113882e-01, 1.58113882e-01, 1.58113882e-01, 1.58113882e-01,
          0., 1.58113882e-01, 0., 1.58113882e-01, 0., 1.58113882e-01,
          1.58113882e-01, 0., 1.58113882e-01, 0., 0., 0., 1.58113882e-01,
          1.58113882e-01, 0., 0., 1.58113882e-01, 0., 1.58113882e-01,
          1.58113882e-01, 1.58113882e-01, 1.58113882e-01 ]
      - [ 0., 1.62221417e-01, 1.62221417e-01, 0., 1.62221417e-01, 0.,
          1.62221417e-01, 1.62221417e-01, 0., 1.62221417e-01,
          1.62221417e-01, 0., 0., 0., 0., 0., 0., 1.62221417e-01, 0.,
          1.62221417e-01, 1.62221417e-01, 1.62221417e-01, 0.,
          1.62221417e-01, 1.62221417e-01, 0., 0., 1.62221417e-01, 0.,
          1.62221417e-01, 0., 0., 1.62221417e-01, 0., 0., 1.62221417e-01,
          1.62221417e-01, 1.62221417e-01, 1.62221417e-01, 0., 0., 0., 0.,
          0., 1.62221417e-01, 0., 1.62221417e-01, 1.62221417e-01,
          1.62221417e-01, 1.62221417e-01, 0., 0., 1.62221417e-01, 0.,
          1.62221417e-01, 0., 1.62221417e-01, 1.62221417e-01,
          1.62221417e-01, 1.62221417e-01, 1.62221417e-01, 0.,
          1.62221417e-01, 0., 0., 1.62221417e-01, 1.62221417e-01,
          1.62221417e-01, 1.62221417e-01, 1.62221417e-01 ]
      - [ 1.49071202e-01, 0., 1.49071202e-01, 0., 0., 1.49071202e-01,
          1.49071202e-01, 1.49071202e-01, 1.49071202e-01, 1.49071202e-01,
          0., 1.49071202e-01, 1.49071202e-01, 1.49071202e-01, 0., 0., 0.,
          1.49071202e-01, 0., 0., 1.49071202e-01, 1.49071202e-01,
          1.49071202e-01, 1.49071202e-01, 0., 1.49071202e-01,
          1.49071202e-01, 1.49071202e-01, 1.49071202e-01, 1.49071202e-01,
          0., 1.49071202e-01, 1.49071202e-01, 1.49071202e-01,
          1.49071202e-01, 1.49071202e-01, 0., 0., 1.49071202e-01, 0.,
          1.49071202e-01, 1.49071202e-01, 1.49071202e-01, 1.49071202e-01,
          1.49071202e-01, 1.49071202e-01, 1.49071202e-01, 1.49071202e-01,
          1.49071202e-01, 1.49071202e-01, 0., 0., 0., 0., 0.,
          1.49071202e-01, 0., 0., 1.49071202e-01, 1.49071202e-01,
          1.49071202e-01, 1.49071202e-01, 1.49071202e-01, 0., 0., 0.,
          1.49071202e-01, 0., 1.49071202e-01, 1.49071202e-01 ]
      - [ 1.79605305e-01, 1.79605305e-01, 0., 0., 0., 0., 1.79605305e-01,
          1.79605305e-01, 0., 1.79605305e-01, 1.79605305e-01, 0.,
          1.79605305e-01, 0., 1.79605305e-01, 1.79605305e-01, 0., 0., 0.,
          0., 1.79605305e-01, 0., 0., 1.79605305e-01, 0., 0.,
          1.79605305e-01, 1.79605305e-01, 0., 1.79605305e-01, 0., 0.,
          1.79605305e-01, 1.79605305e-01, 1.79605305e-01, 1.79605305e-01,
          1.79605305e-01, 0., 1.79605305e-01, 1.79605305e-01,
          1.79605305e-01, 0., 0., 0., 0., 0., 1.79605305e-01,
          1.79605305e-01, 1.79605305e-01, 1.79605305e-01, 0., 0.,
          1.79605305e-01, 0., 1.79605305e-01, 0., 0., 0., 0.,
          1.79605305e-01, 1.79605305e-01, 0., 0., 0., 0., 0.,
          1.79605305e-01, 0., 0., 0. ]
      - [ 1.79605305e-01, 1.79605305e-01, 1.79605305e-01, 0.,
          1.79605305e-01, 1.79605305e-01, 1.79605305e-01, 1.79605305e-01,
          0., 0., 1.79605305e-01, 0., 1.79605305e-01, 0., 0., 0.,
          1.79605305e-01, 0., 0., 0., 1.79605305e-01, 0., 0., 0.,
          1.79605305e-01, 0., 1.79605305e-01, 0., 0., 0., 1.79605305e-01,
          0., 1.79605305e-01, 0., 1.79605305e-01, 1.79605305e-01, 0.,
          1.79605305e-01, 0., 1.79605305e-01, 1.79605305e-01,
          1.79605305e-01, 0., 1.79605305e-01, 1.79605305e-01, 0.,
          1.79605305e-01, 0., 1.79605305e-01, 1.79605305e-01,
          1.79605305e-01, 0., 0., 0., 1.79605305e-01, 0., 0., 0., 0., 0.,
          0., 0., 1.79605305e-01, 0., 0., 0., 1.79605305e-01, 0., 0.,
          1.79605305e-01 ]
      - [ 0., 1.50755674e-01, 1.50755674e-01, 0., 1.50755674e-01,
          1.50755674e-01, 0., 0., 0., 0., 1.50755674e-01, 1.50755674e-01,
          1.50755674e-01, 1.50755674e-01, 0., 0., 0., 1.50755674e-01,
          1.50755674e-01, 0., 0., 1.50755674e-01, 1.50755674e-01,
          1.50755674e-01, 1.50755674e-01, 0., 1.50755674e-01, 0.,
          1.50755674e-01, 1.50755674e-01, 1.50755674e-01, 0., 0.,
          1.50755674e-01, 1.50755674e-01, 1.50755674e-01, 0.,
          1.50755674e-01, 1.50755674e-01, 1.50755674e-01, 1.50755674e-01,
          1.50755674e-01, 0., 1.50755674e-01, 0., 1.50755674e-01,
          1.50755674e-01, 1.50755674e-01, 1.50755674e-01, 0., 0.,
          1.50755674e-01, 0., 1.50755674e-01, 1.50755674e-01, 0., 0., 0.,
          1.50755674e-01, 1.50755674e-01, 1.50755674e-01, 1.50755674e-01,
          1.50755674e-01, 1.50755674e-01, 1.50755674e-01, 0.,
          1.50755674e-01, 1.50755674e-01, 1.50755674e-01, 0. ]
      - [ 1.40028015e-01, 1.40028015e-01, 1.40028015e-01, 1.40028015e-01,
          1.40028015e-01, 0., 1.40028015e-01, 0., 0., 0., 1.40028015e-01,
          1.40028015e-01, 1.40028015e-01, 1.40028015e-01, 1.40028015e-01,
          0., 1.40028015e-01, 0., 1.40028015e-01, 1.40028015e-01,
          1.40028015e-01, 0., 1.40028015e-01, 1.40028015e-01,
          1.40028015e-01, 1.40028015e-01, 1.40028015e-01, 1.40028015e-01,
          0., 1.40028015e-01, 1.40028015e-01, 0., 1.40028015e-01, 0., 0.,
          1.40028015e-01, 1.40028015e-01, 1.40028015e-01, 1.40028015e-01,
          1.40028015e-01, 0., 1.40028015e-01, 1.40028015e-01,
          1.40028015e-01, 0., 1.40028015e-01, 1.40028015e-01,
          1.40028015e-01, 1.40028015e-01, 1.40028015e-01, 1.40028015e-01,
          0., 1.40028015e-01, 0., 1.40028015e-01, 0., 1.40028015e-01, 0.,
          1.40028015e-01, 0., 1.40028015e-01, 1.40028015e-01,
          1.40028015e-01, 1.40028015e-01, 1.40028015e-01, 1.40028015e-01,
          1.40028015e-01, 1.40028015e-01, 1.40028015e-01, 0. ]
      - [ 1.32453233e-01, 1.32453233e-01, 1.32453233e-01, 0., 0.,
          1.32453233e-01, 1.32453233e-01, 1.32453233e-01, 1.32453233e-01,
          1.32453233e-01, 1.32453233e-01, 1.32453233e-01, 1.32453233e-01,
          1.32453233e-01, 1.32453233e-01, 0., 1.32453233e-01, 0., 0., 0.,
          1.32453233e-01, 1.32453233e-01, 1.32453233e-01, 1.32453233e-01,
          0., 0., 1.32453233e-01, 1.32453233e-01, 1.32453233e-01,
          1.32453233e-01, 1.32453233e-01, 1.32453233e-01, 1.32453233e-01,
          1.32453233e-01, 1.32453233e-01, 1.32453233e-01, 1.32453233e-01,
          1.32453233e-01, 1.32453233e-01, 1.32453233e-01, 1.32453233e-01,
          1.32453233e-01, 1.32453233e-01, 1.32453233e-01, 1.32453233e-01,
          1.32453233e-01, 1.32453233e-01, 1.32453233e-01, 1.32453233e-01,
          1.32453233e-01, 1.32453233e-01, 1.32453233e-01, 1.32453233e-01,
          1.32453233e-01, 1.32453233e-01, 0., 0., 0., 1.32453233e-01,
          1.32453233e-01, 0., 1.32453233e-01, 1.32453233e-01,
          1.32453233e-01, 1.32453233e-01, 0., 1.32453233e-01,
          1.32453233e-01, 1.32453233e-01, 1.32453233e-01 ]
      - [ 1.47441953e-01, 1.47441953e-01, 1.47441953e-01, 1.47441953e-01,
          1.47441953e-01, 1.47441953e-01, 1.47441953e-01, 1.47441953e-01,
          0., 1.47441953e-01, 1.47441953e-01, 1.47441953e-01, 0.,
          1.47441953e-01, 0., 0., 0., 0., 1.47441953e-01, 0.,
          1.47441953e-01, 1.47441953e-01, 0., 0., 1.47441953e-01,
          1.47441953e-01, 1.47441953e-01, 0., 0., 0., 0., 0.,
          1.47441953e-01, 1.47441953e-01, 1.47441953e-01, 1.47441953e-01,
          1.47441953e-01, 1.47441953e-01, 0., 1.47441953e-01,
          1.47441953e-01, 1.47441953e-01, 1.47441953e-01, 0.,
          1.47441953e-01, 1.47441953e-01, 1.47441953e-01, 1.47441953e-01,
          1.47441953e-01, 1.47441953e-01, 1.47441953e-01, 1.47441953e-01,
          1.47441953e-01, 0., 0., 0., 1.47441953e-01, 1.47441953e-01,
          1.47441953e-01, 0., 0., 0., 0., 0., 1.47441953e-01,
          1.47441953e-01, 1.47441953e-01, 1.47441953e-01, 1.47441953e-01,
          1.47441953e-01 ]
      - [ 1.30188912e-01, 1.30188912e-01, 1.30188912e-01, 1.30188912e-01,
          1.30188912e-01, 1.30188912e-01, 0., 0., 1.30188912e-01,
          1.30188912e-01, 0., 1.30188912e-01, 1.30188912e-01,
          1.30188912e-01, 1.30188912e-01, 1.30188912e-01, 1.30188912e-01,
          1.30188912e-01, 1.30188912e-01, 1.30188912e-01, 1.30188912e-01,
          0., 1.30188912e-01, 0., 1.30188912e-01, 1.30188912e-01,
          1.30188912e-01, 1.30188912e-01, 1.30188912e-01, 1.30188912e-01,
          1.30188912e-01, 1.30188912e-01, 1.30188912e-01, 1.30188912e-01,
          1.30188912e-01, 1.30188912e-01, 1.30188912e-01, 1.30188912e-01,
          0., 1.30188912e-01, 1.30188912e-01, 1.30188912e-01,
          1.30188912e-01, 0., 1.30188912e-01, 1.30188912e-01,
          1.30188912e-01, 1.30188912e-01, 1.30188912e-01, 1.30188912e-01,
          1.30188912e-01, 1.30188912e-01, 1.30188912e-01, 1.30188912e-01,
          1.30188912e-01, 0., 0., 1.30188912e-01, 1.30188912e-01,
          1.30188912e-01, 1.30188912e-01, 1.30188912e-01, 1.30188912e-01,
          0., 1.30188912e-01, 0., 1.30188912e-01, 1.30188912e-01,
          1.30188912e-01, 1.30188912e-01 ]
      - [ 1.74077660e-01, 1.74077660e-01, 0., 0., 0., 0., 1.74077660e-01,
          0., 0., 1.74077660e-01, 1.74077660e-01, 0., 0., 1.74077660e-01,
          1.74077660e-01, 0., 1.74077660e-01, 0., 0., 0., 0., 0., 0.,
          1.74077660e-01, 0., 0., 1.74077660e-01, 0., 1.74077660e-01,
          1.74077660e-01, 1.74077660e-01, 1.74077660e-01, 0., 0.,
          1.74077660e-01, 1.74077660e-01, 1.74077660e-01, 1.74077660e-01,
          1.74077660e-01, 0., 0., 1.74077660e-01, 1.74077660e-01, 0., 0.,
          0., 1.74077660e-01, 0., 0., 0., 0., 1.74077660e-01,
          1.74077660e-01, 0., 0., 0., 1.74077660e-01, 0., 1.74077660e-01,
          1.74077660e-01, 1.74077660e-01, 1.74077660e-01, 1.74077660e-01,
          0., 0., 1.74077660e-01, 1.74077660e-01, 0., 0., 1.74077660e-01 ]
      - [ 1.79605305e-01, 1.79605305e-01, 0., 1.79605305e-01, 0., 0., 0.,
          1.79605305e-01, 1.79605305e-01, 1.79605305e-01, 0.,
          1.79605305e-01, 0., 0., 0., 1.79605305e-01, 0., 1.79605305e-01,
          0., 0., 0., 1.79605305e-01, 0., 0., 1.79605305e-01, 0., 0., 0.,
          1.79605305e-01, 0., 1.79605305e-01, 1.79605305e-01, 0.,
          1.79605305e-01, 0., 1.79605305e-01, 1.79605305e-01, 0., 0., 0.,
          0., 0., 1.79605305e-01, 1.79605305e-01, 0., 0., 1.79605305e-01,
          0., 0., 1.79605305e-01, 0., 0., 1.79605305e-01, 0., 0.,
          1.79605305e-01, 0., 0., 1.79605305e-01, 1.79605305e-01, 0.,
          1.79605305e-01, 1.79605305e-01, 0., 0., 1.79605305e-01,
          1.79605305e-01, 1.79605305e-01, 0., 1.79605305e-01 ]
      - [ 1.58113882e-01, 1.58113882e-01, 0., 0., 0., 1.58113882e-01,
          1.58113882e-01, 0., 0., 0., 1.58113882e-01, 1.58113882e-01,
          1.58113882e-01, 1.58113882e-01, 0., 0., 1.58113882e-01,
          1.58113882e-01, 1.58113882e-01, 1.58113882e-01, 1.58113882e-01,
          1.58113882e-01, 0., 0., 0., 0., 0., 1.58113882e-01,
          1.58113882e-01, 0., 1.58113882e-01, 1.58113882e-01,
          1.58113882e-01, 1.58113882e-01, 0., 0., 0., 0., 1.58113882e-01,
          1.58113882e-01, 1.58113882e-01, 1.58113882e-01, 0.,
          1.58113882e-01, 1.58113882e-01, 1.58113882e-01, 1.58113882e-01,
          1.58113882e-01, 0., 0., 0., 1.58113882e-01, 1.58113882e-01, 0.,
          1.58113882e-01, 1.58113882e-01, 0., 0., 1.58113882e-01,
          1.58113882e-01, 0., 1.58113882e-01, 0., 1.58113882e-01, 0.,
          1.58113882e-01, 1.58113882e-01, 0., 1.58113882e-01, 0. ]
      - [ 1.62221417e-01, 0., 0., 0., 1.62221417e-01, 1.62221417e-01,
          1.62221417e-01, 1.62221417e-01, 1.62221417e-01, 1.62221417e-01,
          0., 0., 1.62221417e-01, 1.62221417e-01, 0., 0., 0., 0.,
          1.62221417e-01, 0., 1.62221417e-01, 0., 1.62221417e-01,
          1.62221417e-01, 0., 1.62221417e-01, 0., 1.62221417e-01,
          1.62221417e-01, 1.62221417e-01, 1.62221417e-01, 1.62221417e-01,
          0., 1.62221417e-01, 1.62221417e-01, 1.62221417e-01, 0.,
          1.62221417e-01, 0., 1.62221417e-01, 1.62221417e-01,
          1.62221417e-01, 0., 0., 0., 1.62221417e-01, 0., 1.62221417e-01,
          0., 1.62221417e-01, 0., 0., 1.62221417e-01, 0., 1.62221417e-01,
          0., 1.62221417e-01, 0., 0., 0., 0., 1.62221417e-01,
          1.62221417e-01, 0., 1.62221417e-01, 1.62221417e-01,
          1.62221417e-01, 1.62221417e-01, 0., 0. ]
      - [ 0., 0., 0., 0., 1.47441953e-01, 0., 1.47441953e-01,
          1.47441953e-01, 0., 1.47441953e-01, 1.47441953e-01, 0.,
          1.47441953e-01, 1.47441953e-01, 0., 0., 0., 1.47441953e-01, 0.,
          0., 0., 1.47441953e-01, 1.47441953e-01, 1.47441953e-01, 0.,
          1.47441953e-01, 1.47441953e-01, 1.47441953e-01, 1.47441953e-01,
          1.47441953e-01, 0., 1.47441953e-01, 0., 0., 1.47441953e-01,
          1.47441953e-01, 0., 1.47441953e-01, 1.47441953e-01,
          1.47441953e-01, 0., 1.47441953e-01, 1.47441953e-01,
          1.47441953e-01, 0., 1.47441953e-01, 1.47441953e-01,
          1.47441953e-01, 1.47441953e-01, 1.47441953e-01, 1.47441953e-01,
          1.47441953e-01, 0., 0., 1.47441953e-01, 1.47441953e-01,
          1.47441953e-01, 0., 1.47441953e-01, 1.47441953e-01,
          1.47441953e-01, 0., 1.47441953e-01, 1.47441953e-01,
          1.47441953e-01, 1.47441953e-01, 1.47441953e-01, 1.47441953e-01,
          1.47441953e-01, 1.47441953e-01 ]
      - [ 1.45864993e-01, 0., 1.45864993e-01, 0., 1.45864993e-01,
          1.45864993e-01, 1.45864993e-01, 1.45864993e-01, 1.45864993e-01,
          1.45864993e-01, 1.45864993e-01, 1.45864993e-01, 1.45864993e-01,
          1.45864993e-01, 0., 1.45864993e-01, 0., 1.45864993e-01, 0., 0.,
          1.45864993e-01, 1.45864993e-01, 1.45864993e-01, 1.45864993e-01,
          0., 0., 1.45864993e-01, 0., 1.45864993e-01, 1.45864993e-01, 0.,
          0., 0., 1.45864993e-01, 1.45864993e-01, 1.45864993e-01,
          1.45864993e-01, 1.45864993e-01, 0., 1.45864993e-01,
          1.45864993e-01, 1.45864993e-01, 1.45864993e-01, 0.,
          1.45864993e-01, 1.45864993e-01, 1.45864993e-01, 0.,
          1.45864993e-01, 1.45864993e-01, 0., 1.45864993e-01,
          1.45864993e-01, 1.45864993e-01, 1.45864993e-01, 0., 0., 0.,
          1.45864993e-01, 1.45864993e-01, 1.45864993e-01, 1.45864993e-01,
          1.45864993e-01, 1.45864993e-01, 0., 1.45864993e-01,
          1.45864993e-01, 0., 0., 0. ]
      - [ 1.42857149e-01, 1.42857149e-01, 1.42857149e-01, 0.,
          1.42857149e-01, 1.42857149e-01, 1.42857149e-01, 1.42857149e-01,
          0., 1.42857149e-01, 1.42857149e-01, 1.42857149e-01,
          1.42857149e-01, 1.42857149e-01, 1.42857149e-01, 1.42857149e-01,
          1.42857149e-01, 0., 0., 1.42857149e-01, 1.42857149e-01,
          1.42857149e-01, 1.42857149e-01, 1.42857149e-01, 1.42857149e-01,
          0., 1.42857149e-01, 0., 1.42857149e-01, 1.42857149e-01, 0.,
          1.42857149e-01, 0., 1.42857149e-01, 1.42857149e-01,
          1.42857149e-01, 0., 0., 1.42857149e-01, 1.42857149e-01,
          1.42857149e-01, 0., 0., 1.42857149e-01, 0., 0., 1.42857149e-01,
          1.42857149e-01, 1.42857149e-01, 1.42857149e-01, 1.42857149e-01,
          1.42857149e-01, 1.42857149e-01, 1.42857149e-01, 1.42857149e-01,
          0., 0., 0., 1.42857149e-01, 1.42857149e-01, 1.42857149e-01, 0.,
          1.42857149e-01, 1.42857149e-01, 0., 1.42857149e-01, 0.,
          1.42857149e-01, 0., 1.42857149e-01 ]
      - [ 1.47441953e-01, 1.47441953e-01, 1.47441953e-01, 0.,
          1.47441953e-01, 1.47441953e-01, 1.47441953e-01, 1.47441953e-01,
          0., 0., 1.47441953e-01, 0., 1.47441953e-01, 0., 0.,
          1.47441953e-01, 1.47441953e-01, 1.47441953e-01, 0.,
          1.47441953e-01, 1.47441953e-01, 0., 1.47441953e-01, 0.,
          1.47441953e-01, 0., 0., 1.47441953e-01, 1.47441953e-01,
          1.47441953e-01, 1.47441953e-01, 1.47441953e-01, 1.47441953e-01,
          1.47441953e-01, 0., 1.47441953e-01, 1.47441953e-01, 0.,
          1.47441953e-01, 0., 1.47441953e-01, 1.47441953e-01, 0.,
          1.47441953e-01, 1.47441953e-01, 1.47441953e-01, 1.47441953e-01,
          1.47441953e-01, 1.47441953e-01, 1.47441953e-01, 0.,
          1.47441953e-01, 0., 0., 1.47441953e-01, 0., 0., 0.,
          1.47441953e-01, 1.47441953e-01, 0., 0., 1.47441953e-01,
          1.47441953e-01, 0., 1.47441953e-01, 1.47441953e-01,
          1.47441953e-01, 1.47441953e-01, 1.47441953e-01 ]
      - [ 0., 0., 1.56173766e-01, 1.56173766e-01, 1.56173766e-01, 0., 0.,
          0., 1.56173766e-01, 1.56173766e-01, 1.56173766e-01,
          1.56173766e-01, 0., 1.56173766e-01, 1.56173766e-01, 0., 0.,
          1.56173766e-01, 1.56173766e-01, 0., 0., 1.56173766e-01, 0.,
          1.56173766e-01, 1.56173766e-01, 1.56173766e-01, 1.56173766e-01,
          1.56173766e-01, 1.56173766e-01, 1.56173766e-01, 0.,
          1.56173766e-01, 0., 0., 1.56173766e-01, 1.56173766e-01,
          1.56173766e-01, 1.56173766e-01, 0., 0., 1.56173766e-01,
          1.56173766e-01, 1.56173766e-01, 0., 1.56173766e-01, 0.,
          1.56173766e-01, 1.56173766e-01, 1.56173766e-01, 0.,
          1.56173766e-01, 1.56173766e-01, 1.56173766e-01, 1.56173766e-01,
          1.56173766e-01, 0., 0., 0., 0., 0., 1.56173766e-01,
          1.56173766e-01, 1.56173766e-01, 1.56173766e-01, 0., 0.,
          1.56173766e-01, 0., 0., 0. ]
      - [ 1.23091489e-01, 1.23091489e-01, 1.23091489e-01, 1.23091489e-01,
          1.23091489e-01, 1.23091489e-01, 1.23091489e-01, 0.,
          1.23091489e-01, 1.23091489e-01, 1.23091489e-01, 1.23091489e-01,
          1.23091489e-01, 1.23091489e-01, 1.23091489e-01, 1.23091489e-01,
          1.23091489e-01, 1.23091489e-01, 1.23091489e-01, 1.23091489e-01,
          1.23091489e-01, 1.23091489e-01, 1.23091489e-01, 0., 0.,
          1.23091489e-01, 1.23091489e-01, 1.23091489e-01, 1.23091489e-01,
          1.23091489e-01, 1.23091489e-01, 1.23091489e-01, 1.23091489e-01,
          1.23091489e-01, 1.23091489e-01, 1.23091489e-01, 1.23091489e-01,
          1.23091489e-01, 1.23091489e-01, 1.23091489e-01, 1.23091489e-01,
          1.23091489e-01, 1.23091489e-01, 1.23091489e-01, 1.23091489e-01,
          1.23091489e-01, 1.23091489e-01, 1.23091489e-01, 1.23091489e-01,
          1.23091489e-01, 1.23091489e-01, 1.23091489e-01, 1.23091489e-01,
          1.23091489e-01, 1.23091489e-01, 1.23091489e-01, 1.23091489e-01,
          1.23091489e-01, 1.23091489e-01, 1.23091489e-01, 1.23091489e-01,
          1.23091489e-01, 1.23091489e-01, 1.23091489e-01, 1.23091489e-01,
          0., 1.23091489e-01, 1.23091489e-01, 1.23091489e-01,
          1.23091489e-01 ]
      - [ 1.29099444e-01, 1.29099444e-01, 1.29099444e-01, 1.29099444e-01,
          1.29099444e-01, 0., 1.29099444e-01, 1.29099444e-01,
          1.29099444e-01, 1.29099444e-01, 1.29099444e-01, 1.29099444e-01,
          1.29099444e-01, 1.29099444e-01, 0., 1.29099444e-01,
          1.29099444e-01, 0., 0., 1.29099444e-01, 1.29099444e-01,
          1.29099444e-01, 1.29099444e-01, 1.29099444e-01, 0.,
          1.29099444e-01, 1.29099444e-01, 0., 1.29099444e-01,
          1.29099444e-01, 1.29099444e-01, 1.29099444e-01, 1.29099444e-01,
          1.29099444e-01, 1.29099444e-01, 1.29099444e-01, 1.29099444e-01,
          1.29099444e-01, 0., 1.29099444e-01, 1.29099444e-01,
          1.29099444e-01, 0., 0., 1.29099444e-01, 1.29099444e-01,
          1.29099444e-01, 1.29099444e-01, 1.29099444e-01, 1.29099444e-01,
          1.29099444e-01, 1.29099444e-01, 1.29099444e-01, 1.29099444e-01,
          1.29099444e-01, 1.29099444e-01, 1.29099444e-01, 1.29099444e-01,
          1.29099444e-01, 1.29099444e-01, 1.29099444e-01, 1.29099444e-01,
          1.29099444e-01, 1.29099444e-01, 1.29099444e-01, 1.29099444e-01,
          1.29099444e-01, 0., 1.29099444e-01, 1.29099444e-01 ]
      - [ 0., 2.18217894e-01, 2.18217894e-01, 0., 0., 0., 2.18217894e-01,
          0., 0., 0., 2.18217894e-01, 0., 0., 2.18217894e-01, 0., 0., 0.,
          0., 0., 0., 2.18217894e-01, 0., 0., 0., 2.18217894e-01, 0., 0.,
          0., 0., 0., 0., 2.18217894e-01, 2.18217894e-01, 2.18217894e-01,
          0., 2.18217894e-01, 2.18217894e-01, 2.18217894e-01, 0.,
          2.18217894e-01, 0., 2.18217894e-01, 0., 2.18217894e-01, 0., 0.,
          2.18217894e-01, 0., 0., 0., 2.18217894e-01, 0., 0., 0., 0., 0.,
          0., 0., 2.18217894e-01, 0., 0., 2.18217894e-01, 0.,
          2.18217894e-01, 0., 0., 0., 0., 0., 0. ]
      - [ 1.25000000e-01, 1.25000000e-01, 1.25000000e-01, 1.25000000e-01,
          1.25000000e-01, 1.25000000e-01, 1.25000000e-01, 1.25000000e-01,
          1.25000000e-01, 1.25000000e-01, 1.25000000e-01, 1.25000000e-01,
          1.25000000e-01, 1.25000000e-01, 1.25000000e-01, 1.25000000e-01,
          1.25000000e-01, 0., 0., 1.25000000e-01, 0., 1.25000000e-01,
          1.25000000e-01, 1.25000000e-01, 1.25000000e-01, 1.25000000e-01,
          1.25000000e-01, 1.25000000e-01, 1.25000000e-01, 1.25000000e-01,
          1.25000000e-01, 1.25000000e-01, 1.25000000e-01, 0.,
          1.25000000e-01, 1.25000000e-01, 1.25000000e-01, 1.25000000e-01,
          1.25000000e-01, 1.25000000e-01, 1.25000000e-01, 1.25000000e-01,
          1.25000000e-01, 1.25000000e-01, 1.25000000e-01, 1.25000000e-01,
          1.25000000e-01, 1.25000000e-01, 0., 1.25000000e-01,
          1.25000000e-01, 1.25000000e-01, 1.25000000e-01, 1.25000000e-01,
          1.25000000e-01, 1.25000000e-01, 1.25000000e-01, 1.25000000e-01,
          1.25000000e-01, 1.25000000e-01, 1.25000000e-01, 1.25000000e-01,
          1.25000000e-01, 1.25000000e-01, 1.25000000e-01, 1.25000000e-01,
          1.25000000e-01, 1.25000000e-01, 0., 1.25000000e-01 ]
      - [ 0., 0., 1.62221417e-01, 1.62221417e-01, 0., 0., 1.62221417e-01,
          0., 0., 1.62221417e-01, 1.62221417e-01, 1.62221417e-01, 0.,
          1.62221417e-01, 0., 0., 0., 0., 0., 0., 0., 0., 1.62221417e-01,
          0., 1.62221417e-01, 1.62221417e-01, 1.62221417e-01, 0., 0., 0.,
          0., 1.62221417e-01, 1.62221417e-01, 0., 1.62221417e-01,
          1.62221417e-01, 0., 0., 0., 1.62221417e-01, 1.62221417e-01,
          1.62221417e-01, 0., 0., 0., 0., 1.62221417e-01, 1.62221417e-01,
          1.62221417e-01, 1.62221417e-01, 0., 1.62221417e-01,
          1.62221417e-01, 1.62221417e-01, 1.62221417e-01, 1.62221417e-01,
          1.62221417e-01, 0., 1.62221417e-01, 1.62221417e-01, 0.,
          1.62221417e-01, 1.62221417e-01, 1.62221417e-01, 0.,
          1.62221417e-01, 1.62221417e-01, 1.62221417e-01, 1.62221417e-01,
          1.62221417e-01 ]
      - [ 1.47441953e-01, 0., 0., 0., 1.47441953e-01, 1.47441953e-01,
          1.47441953e-01, 0., 0., 1.47441953e-01, 1.47441953e-01, 0.,
          1.47441953e-01, 0., 1.47441953e-01, 0., 0., 0., 1.47441953e-01,
          0., 1.47441953e-01, 0., 1.47441953e-01, 1.47441953e-01,
          1.47441953e-01, 0., 1.47441953e-01, 1.47441953e-01, 0.,
          1.47441953e-01, 1.47441953e-01, 0., 1.47441953e-01, 0.,
          1.47441953e-01, 1.47441953e-01, 0., 1.47441953e-01, 0.,
          1.47441953e-01, 1.47441953e-01, 0., 1.47441953e-01,
          1.47441953e-01, 1.47441953e-01, 1.47441953e-01, 1.47441953e-01,
          1.47441953e-01, 1.47441953e-01, 1.47441953e-01, 1.47441953e-01,
          0., 1.47441953e-01, 1.47441953e-01, 1.47441953e-01, 0.,
          1.47441953e-01, 1.47441953e-01, 0., 1.47441953e-01,
          1.47441953e-01, 0., 1.47441953e-01, 1.47441953e-01, 0.,
          1.47441953e-01, 1.47441953e-01, 1.47441953e-01, 1.47441953e-01,
          1.47441953e-01 ]
      - [ 0., 0., 0., 0., 0., 0., 0., 0., 0., 0., 0., 0., 0., 0., 0., 0.,
          0., 0., 0., 0., 0., 0., 0., 0., 0., 0., 0., 0., 0., 0., 0., 0.,
          0., 0., 0., 7.07106769e-01, 0., 0., 0., 0., 0., 0., 0., 0., 0.,
          0., 0., 0., 0., 0., 0., 0., 0., 0., 0., 0., 0., 0., 0., 0., 0.,
          7.07106769e-01, 0., 0., 0., 0., 0., 0., 0., 0. ]
      - [ 1.47441953e-01, 0., 1.47441953e-01, 0., 1.47441953e-01,
          1.47441953e-01, 1.47441953e-01, 0., 1.47441953e-01,
          1.47441953e-01, 1.47441953e-01, 1.47441953e-01, 1.47441953e-01,
          1.47441953e-01, 0., 1.47441953e-01, 1.47441953e-01, 0., 0.,
          1.47441953e-01, 1.47441953e-01, 1.47441953e-01, 1.47441953e-01,
          1.47441953e-01, 0., 1.47441953e-01, 1.47441953e-01,
          1.47441953e-01, 1.47441953e-01, 0., 1.47441953e-01,
          1.47441953e-01, 1.47441953e-01, 1.47441953e-01, 1.47441953e-01,
          1.47441953e-01, 0., 0., 1.47441953e-01, 0., 0., 1.47441953e-01,
          1.47441953e-01, 1.47441953e-01, 0., 1.47441953e-01,
          1.47441953e-01, 1.47441953e-01, 0., 1.47441953e-01, 0.,
          1.47441953e-01, 0., 0., 1.47441953e-01, 0., 0., 1.47441953e-01,
          1.47441953e-01, 0., 1.47441953e-01, 0., 1.47441953e-01,
          1.47441953e-01, 1.47441953e-01, 0., 1.47441953e-01, 0.,
          1.47441953e-01, 0. ]
      - [ 1.33630618e-01, 1.33630618e-01, 0., 0., 1.33630618e-01, 0.,
          1.33630618e-01, 1.33630618e-01, 0., 1.33630618e-01,
          1.33630618e-01, 1.33630618e-01, 1.33630618e-01, 1.33630618e-01,
          0., 1.33630618e-01, 1.33630618e-01, 1.33630618e-01, 0.,
          1.33630618e-01, 1.33630618e-01, 1.33630618e-01, 1.33630618e-01,
          0., 1.33630618e-01, 1.33630618e-01, 1.33630618e-01, 0.,
          1.33630618e-01, 1.33630618e-01, 1.33630618e-01, 1.33630618e-01,
          1.33630618e-01, 1.33630618e-01, 1.33630618e-01, 1.33630618e-01,
          1.33630618e-01, 1.33630618e-01, 0., 1.33630618e-01,
          1.33630618e-01, 1.33630618e-01, 1.33630618e-01, 1.33630618e-01,
          1.33630618e-01, 1.33630618e-01, 1.33630618e-01, 1.33630618e-01,
          0., 1.33630618e-01, 1.33630618e-01, 1.33630618e-01,
          1.33630618e-01, 0., 1.33630618e-01, 1.33630618e-01, 0.,
          1.33630618e-01, 1.33630618e-01, 0., 1.33630618e-01,
          1.33630618e-01, 0., 1.33630618e-01, 1.33630618e-01,
          1.33630618e-01, 1.33630618e-01, 1.33630618e-01, 1.33630618e-01,
          1.33630618e-01 ]
      - [ 1.52498573e-01, 1.52498573e-01, 0., 0., 1.52498573e-01,
          1.52498573e-01, 1.52498573e-01, 0., 0., 0., 1.52498573e-01,
          1.52498573e-01, 1.52498573e-01, 0., 1.52498573e-01,
          1.52498573e-01, 0., 0., 1.52498573e-01, 0., 1.52498573e-01,
          1.52498573e-01, 1.52498573e-01, 1.52498573e-01, 1.52498573e-01,
          0., 1.52498573e-01, 1.52498573e-01, 1.52498573e-01, 0., 0.,
          1.52498573e-01, 0., 1.52498573e-01, 1.52498573e-01,
          1.52498573e-01, 0., 1.52498573e-01, 0., 1.52498573e-01,
          1.52498573e-01, 1.52498573e-01, 0., 1.52498573e-01, 0., 0.,
          1.52498573e-01, 1.52498573e-01, 1.52498573e-01, 1.52498573e-01,
          1.52498573e-01, 0., 1.52498573e-01, 1.52498573e-01, 0., 0., 0.,
          0., 1.52498573e-01, 0., 1.52498573e-01, 0., 1.52498573e-01,
          1.52498573e-01, 0., 1.52498573e-01, 1.52498573e-01, 0.,
          1.52498573e-01, 1.52498573e-01 ]
      - [ 1.40028015e-01, 1.40028015e-01, 1.40028015e-01, 1.40028015e-01,
          1.40028015e-01, 1.40028015e-01, 1.40028015e-01, 1.40028015e-01,
          0., 1.40028015e-01, 1.40028015e-01, 0., 1.40028015e-01,
          1.40028015e-01, 1.40028015e-01, 0., 1.40028015e-01,
          1.40028015e-01, 1.40028015e-01, 0., 1.40028015e-01, 0.,
          1.40028015e-01, 0., 0., 1.40028015e-01, 1.40028015e-01, 0.,
          1.40028015e-01, 1.40028015e-01, 1.40028015e-01, 0.,
          1.40028015e-01, 0., 0., 1.40028015e-01, 1.40028015e-01, 0.,
          1.40028015e-01, 1.40028015e-01, 1.40028015e-01, 1.40028015e-01,
          1.40028015e-01, 1.40028015e-01, 1.40028015e-01, 1.40028015e-01,
          1.40028015e-01, 1.40028015e-01, 1.40028015e-01, 0., 0., 0.,
          1.40028015e-01, 1.40028015e-01, 1.40028015e-01, 1.40028015e-01,
          0., 1.40028015e-01, 1.40028015e-01, 0., 1.40028015e-01,
          1.40028015e-01, 1.40028015e-01, 1.40028015e-01, 1.40028015e-01,
          0., 1.40028015e-01, 0., 1.40028015e-01, 1.40028015e-01 ]
      - [ 1.52498573e-01, 0., 1.52498573e-01, 1.52498573e-01,
          1.52498573e-01, 1.52498573e-01, 0., 0., 0., 0., 1.52498573e-01,
          1.52498573e-01, 1.52498573e-01, 1.52498573e-01, 1.52498573e-01,
          0., 1.52498573e-01, 0., 0., 1.52498573e-01, 1.52498573e-01, 0.,
          1.52498573e-01, 1.52498573e-01, 1.52498573e-01, 0., 0., 0., 0.,
          0., 1.52498573e-01, 1.52498573e-01, 1.52498573e-01, 0., 0.,
          1.52498573e-01, 0., 1.52498573e-01, 1.52498573e-01,
          1.52498573e-01, 1.52498573e-01, 1.52498573e-01, 0., 0., 0.,
          1.52498573e-01, 1.52498573e-01, 1.52498573e-01, 1.52498573e-01,
          1.52498573e-01, 1.52498573e-01, 1.52498573e-01, 0.,
          1.52498573e-01, 1.52498573e-01, 0., 0., 0., 1.52498573e-01, 0.,
          0., 1.52498573e-01, 1.52498573e-01, 1.52498573e-01,
          1.52498573e-01, 1.52498573e-01, 1.52498573e-01, 0.,
          1.52498573e-01, 1.52498573e-01 ]
      - [ 1.60128146e-01, 0., 1.60128146e-01, 1.60128146e-01,
          1.60128146e-01, 0., 0., 0., 1.60128146e-01, 1.60128146e-01, 0.,
          1.60128146e-01, 1.60128146e-01, 0., 1.60128146e-01, 0., 0.,
          1.60128146e-01, 0., 1.60128146e-01, 1.60128146e-01,
          1.60128146e-01, 1.60128146e-01, 1.60128146e-01, 0.,
          1.60128146e-01, 1.60128146e-01, 1.60128146e-01, 1.60128146e-01,
          0., 0., 0., 1.60128146e-01, 0., 0., 1.60128146e-01, 0., 0.,
          1.60128146e-01, 0., 1.60128146e-01, 1.60128146e-01, 0., 0., 0.,
          1.60128146e-01, 1.60128146e-01, 1.60128146e-01, 0.,
          1.60128146e-01, 0., 0., 0., 1.60128146e-01, 1.60128146e-01, 0.,
          1.60128146e-01, 0., 1.60128146e-01, 1.60128146e-01, 0., 0.,
          1.60128146e-01, 1.60128146e-01, 1.60128146e-01, 1.60128146e-01,
          0., 1.60128146e-01, 1.60128146e-01, 0. ]
      - [ 1.31306440e-01, 0., 0., 1.31306440e-01, 0., 1.31306440e-01, 0.,
          1.31306440e-01, 1.31306440e-01, 1.31306440e-01, 1.31306440e-01,
          1.31306440e-01, 1.31306440e-01, 1.31306440e-01, 1.31306440e-01,
          0., 1.31306440e-01, 0., 1.31306440e-01, 1.31306440e-01,
          1.31306440e-01, 1.31306440e-01, 1.31306440e-01, 1.31306440e-01,
          1.31306440e-01, 1.31306440e-01, 1.31306440e-01, 1.31306440e-01,
          1.31306440e-01, 1.31306440e-01, 1.31306440e-01, 1.31306440e-01,
          1.31306440e-01, 1.31306440e-01, 0., 1.31306440e-01,
          1.31306440e-01, 1.31306440e-01, 1.31306440e-01, 1.31306440e-01,
          1.31306440e-01, 1.31306440e-01, 1.31306440e-01, 1.31306440e-01,
          1.31306440e-01, 1.31306440e-01, 1.31306440e-01, 1.31306440e-01,
          1.31306440e-01, 1.31306440e-01, 1.31306440e-01, 1.31306440e-01,
          1.31306440e-01, 1.31306440e-01, 1.31306440e-01, 0.,
          1.31306440e-01, 0., 1.31306440e-01, 0., 0., 1.31306440e-01,
          1.31306440e-01, 1.31306440e-01, 1.31306440e-01, 0.,
          1.31306440e-01, 1.31306440e-01, 1.31306440e-01, 1.31306440e-01 ]
      - [ 0., 1.42857149e-01, 1.42857149e-01, 0., 1.42857149e-01, 0., 0.,
          0., 1.42857149e-01, 1.42857149e-01, 1.42857149e-01,
          1.42857149e-01, 1.42857149e-01, 1.42857149e-01, 1.42857149e-01,
          0., 0., 0., 1.42857149e-01, 1.42857149e-01, 1.42857149e-01,
          1.42857149e-01, 1.42857149e-01, 0., 1.42857149e-01,
          1.42857149e-01, 1.42857149e-01, 0., 0., 1.42857149e-01,
          1.42857149e-01, 0., 1.42857149e-01, 1.42857149e-01,
          1.42857149e-01, 1.42857149e-01, 0., 0., 0., 0., 1.42857149e-01,
          1.42857149e-01, 0., 1.42857149e-01, 1.42857149e-01,
          1.42857149e-01, 1.42857149e-01, 1.42857149e-01, 1.42857149e-01,
          0., 1.42857149e-01, 1.42857149e-01, 0., 0., 1.42857149e-01,
          1.42857149e-01, 1.42857149e-01, 0., 1.42857149e-01,
          1.42857149e-01, 1.42857149e-01, 1.42857149e-01, 1.42857149e-01,
          1.42857149e-01, 1.42857149e-01, 1.42857149e-01, 1.42857149e-01,
          1.42857149e-01, 1.42857149e-01, 1.42857149e-01 ]
      - [ 1.56173766e-01, 1.56173766e-01, 1.56173766e-01, 0.,
          1.56173766e-01, 1.56173766e-01, 1.56173766e-01, 0., 0.,
          1.56173766e-01, 1.56173766e-01, 0., 1.56173766e-01,
          1.56173766e-01, 0., 0., 1.56173766e-01, 1.56173766e-01, 0.,
          1.56173766e-01, 1.56173766e-01, 1.56173766e-01, 1.56173766e-01,
          0., 1.56173766e-01, 1.56173766e-01, 0., 1.56173766e-01, 0.,
          1.56173766e-01, 1.56173766e-01, 1.56173766e-01, 0., 0., 0., 0.,
          0., 0., 1.56173766e-01, 1.56173766e-01, 1.56173766e-01, 0.,
          1.56173766e-01, 0., 1.56173766e-01, 1.56173766e-01,
          1.56173766e-01, 0., 1.56173766e-01, 1.56173766e-01, 0., 0., 0.,
          0., 1.56173766e-01, 1.56173766e-01, 1.56173766e-01, 0.,
          1.56173766e-01, 0., 1.56173766e-01, 0., 1.56173766e-01,
          1.56173766e-01, 1.56173766e-01, 1.56173766e-01, 0., 0.,
          1.56173766e-01, 0. ]
      - [ 1.34839967e-01, 1.34839967e-01, 1.34839967e-01, 1.34839967e-01,
          1.34839967e-01, 1.34839967e-01, 1.34839967e-01, 0.,
          1.34839967e-01, 1.34839967e-01, 1.34839967e-01, 0.,
          1.34839967e-01, 1.34839967e-01, 1.34839967e-01, 0.,
          1.34839967e-01, 1.34839967e-01, 1.34839967e-01, 1.34839967e-01,
          0., 1.34839967e-01, 1.34839967e-01, 1.34839967e-01,
          1.34839967e-01, 0., 0., 0., 1.34839967e-01, 1.34839967e-01,
          1.34839967e-01, 1.34839967e-01, 0., 0., 1.34839967e-01, 0.,
          1.34839967e-01, 1.34839967e-01, 1.34839967e-01, 1.34839967e-01,
          1.34839967e-01, 1.34839967e-01, 1.34839967e-01, 1.34839967e-01,
          1.34839967e-01, 1.34839967e-01, 1.34839967e-01, 1.34839967e-01,
          1.34839967e-01, 1.34839967e-01, 0., 1.34839967e-01, 0.,
          1.34839967e-01, 0., 1.34839967e-01, 1.34839967e-01,
          1.34839967e-01, 1.34839967e-01, 1.34839967e-01, 1.34839967e-01,
          1.34839967e-01, 0., 1.34839967e-01, 1.34839967e-01,
          1.34839967e-01, 1.34839967e-01, 1.34839967e-01, 0.,
          1.34839967e-01 ]
      - [ 0., 1.32453233e-01, 1.32453233e-01, 0., 1.32453233e-01,
          1.32453233e-01, 1.32453233e-01, 1.32453233e-01, 0.,
          1.32453233e-01, 1.32453233e-01, 1.32453233e-01, 1.32453233e-01,
          1.32453233e-01, 0., 1.32453233e-01, 1.32453233e-01,
          1.32453233e-01, 1.32453233e-01, 0., 1.32453233e-01,
          1.32453233e-01, 1.32453233e-01, 1.32453233e-01, 1.32453233e-01,
          1.32453233e-01, 1.32453233e-01, 1.32453233e-01, 1.32453233e-01,
          1.32453233e-01, 1.32453233e-01, 0., 1.32453233e-01,
          1.32453233e-01, 1.32453233e-01, 1.32453233e-01, 0., 0.,
          1.32453233e-01, 1.32453233e-01, 1.32453233e-01, 1.32453233e-01,
          1.32453233e-01, 1.32453233e-01, 1.32453233e-01, 1.32453233e-01,
          1.32453233e-01, 1.32453233e-01, 0., 1.32453233e-01,
          1.32453233e-01, 1.32453233e-01, 1.32453233e-01, 0.,
          1.32453233e-01, 0., 1.32453233e-01, 0., 1.32453233e-01, 0.,
          1.32453233e-01, 1.32453233e-01, 1.32453233e-01, 1.32453233e-01,
          1.32453233e-01, 1.32453233e-01, 1.32453233e-01, 1.32453233e-01,
          1.32453233e-01, 1.32453233e-01 ]
      - [ 1.38675049e-01, 1.38675049e-01, 1.38675049e-01, 0.,
          1.38675049e-01, 1.38675049e-01, 1.38675049e-01, 0., 0.,
          1.38675049e-01, 1.38675049e-01, 1.38675049e-01, 1.38675049e-01,
          1.38675049e-01, 1.38675049e-01, 1.38675049e-01, 1.38675049e-01,
          1.38675049e-01, 1.38675049e-01, 1.38675049e-01, 1.38675049e-01,
          1.38675049e-01, 0., 1.38675049e-01, 1.38675049e-01,
          1.38675049e-01, 1.38675049e-01, 0., 1.38675049e-01, 0.,
          1.38675049e-01, 1.38675049e-01, 1.38675049e-01, 0.,
          1.38675049e-01, 0., 0., 1.38675049e-01, 1.38675049e-01,
          1.38675049e-01, 1.38675049e-01, 1.38675049e-01, 0., 0.,
          1.38675049e-01, 0., 1.38675049e-01, 1.38675049e-01,
          1.38675049e-01, 0., 1.38675049e-01, 0., 1.38675049e-01,
          1.38675049e-01, 0., 1.38675049e-01, 1.38675049e-01,
          1.38675049e-01, 1.38675049e-01, 0., 1.38675049e-01,
          1.38675049e-01, 0., 1.38675049e-01, 0., 1.38675049e-01,
          1.38675049e-01, 1.38675049e-01, 1.38675049e-01, 1.38675049e-01 ]
      - [ 0., 1.50755674e-01, 0., 0., 1.50755674e-01, 1.50755674e-01, 0.,
          0., 0., 1.50755674e-01, 1.50755674e-01, 1.50755674e-01,
          1.50755674e-01, 1.50755674e-01, 1.50755674e-01, 0.,
          1.50755674e-01, 1.50755674e-01, 1.50755674e-01, 1.50755674e-01,
          1.50755674e-01, 0., 1.50755674e-01, 1.50755674e-01,
          1.50755674e-01, 0., 1.50755674e-01, 1.50755674e-01, 0.,
          1.50755674e-01, 1.50755674e-01, 1.50755674e-01, 1.50755674e-01,
          1.50755674e-01, 1.50755674e-01, 1.50755674e-01, 0.,
          1.50755674e-01, 0., 1.50755674e-01, 1.50755674e-01,
          1.50755674e-01, 0., 1.50755674e-01, 1.50755674e-01,
          1.50755674e-01, 1.50755674e-01, 1.50755674e-01, 1.50755674e-01,
          0., 1.50755674e-01, 1.50755674e-01, 1.50755674e-01, 0., 0.,
          1.50755674e-01, 0., 0., 1.50755674e-01, 0., 0., 0.,
          1.50755674e-01, 1.50755674e-01, 0., 0., 1.50755674e-01, 0., 0.,
          0. ]
      - [ 2.08514407e-01, 2.08514407e-01, 0., 0., 0., 2.08514407e-01, 0.,
          0., 2.08514407e-01, 2.08514407e-01, 0., 0., 0., 0., 0., 0., 0.,
          2.08514407e-01, 0., 0., 0., 0., 0., 0., 2.08514407e-01, 0.,
          2.08514407e-01, 2.08514407e-01, 0., 2.08514407e-01,
          2.08514407e-01, 0., 0., 2.08514407e-01, 2.08514407e-01,
          2.08514407e-01, 0., 0., 2.08514407e-01, 0., 2.08514407e-01, 0.,
          2.08514407e-01, 0., 0., 2.08514407e-01, 2.08514407e-01, 0.,
          2.08514407e-01, 0., 0., 0., 0., 0., 0., 0., 0., 0., 0., 0.,
          2.08514407e-01, 0., 2.08514407e-01, 2.08514407e-01, 0., 0., 0.,
          0., 0., 0. ]
      - [ 1.52498573e-01, 1.52498573e-01, 0., 0., 1.52498573e-01,
          1.52498573e-01, 0., 0., 0., 1.52498573e-01, 1.52498573e-01,
          1.52498573e-01, 1.52498573e-01, 1.52498573e-01, 0.,
          1.52498573e-01, 0., 1.52498573e-01, 1.52498573e-01, 0.,
          1.52498573e-01, 1.52498573e-01, 1.52498573e-01, 0.,
          1.52498573e-01, 1.52498573e-01, 0., 1.52498573e-01,
          1.52498573e-01, 1.52498573e-01, 1.52498573e-01, 0.,
          1.52498573e-01, 0., 1.52498573e-01, 1.52498573e-01, 0.,
          1.52498573e-01, 0., 1.52498573e-01, 0., 1.52498573e-01,
          1.52498573e-01, 1.52498573e-01, 0., 1.52498573e-01,
          1.52498573e-01, 0., 0., 1.52498573e-01, 1.52498573e-01,
          1.52498573e-01, 0., 1.52498573e-01, 1.52498573e-01, 0., 0., 0.,
          1.52498573e-01, 1.52498573e-01, 1.52498573e-01, 1.52498573e-01,
          1.52498573e-01, 1.52498573e-01, 0., 0., 0., 1.52498573e-01, 0.,
          0. ]
      - [ 1.45864993e-01, 1.45864993e-01, 1.45864993e-01, 0.,
          1.45864993e-01, 0., 1.45864993e-01, 1.45864993e-01, 0.,
          1.45864993e-01, 1.45864993e-01, 0., 1.45864993e-01,
          1.45864993e-01, 1.45864993e-01, 1.45864993e-01, 0., 0., 0.,
          1.45864993e-01, 1.45864993e-01, 1.45864993e-01, 1.45864993e-01,
          0., 0., 0., 1.45864993e-01, 1.45864993e-01, 1.45864993e-01,
          1.45864993e-01, 1.45864993e-01, 1.45864993e-01, 1.45864993e-01,
          1.45864993e-01, 0., 1.45864993e-01, 0., 0., 1.45864993e-01,
          1.45864993e-01, 1.45864993e-01, 0., 1.45864993e-01, 0., 0., 0.,
          1.45864993e-01, 1.45864993e-01, 1.45864993e-01, 0.,
          1.45864993e-01, 1.45864993e-01, 1.45864993e-01, 1.45864993e-01,
          1.45864993e-01, 1.45864993e-01, 0., 1.45864993e-01,
          1.45864993e-01, 0., 1.45864993e-01, 0., 1.45864993e-01, 0., 0.,
          1.45864993e-01, 1.45864993e-01, 1.45864993e-01, 1.45864993e-01,
          1.45864993e-01 ]
      - [ 0., 0., 1.37360558e-01, 0., 1.37360558e-01, 1.37360558e-01, 0.,
          1.37360558e-01, 1.37360558e-01, 1.37360558e-01, 1.37360558e-01,
          0., 1.37360558e-01, 1.37360558e-01, 1.37360558e-01,
          1.37360558e-01, 1.37360558e-01, 1.37360558e-01, 0.,
          1.37360558e-01, 1.37360558e-01, 1.37360558e-01, 1.37360558e-01,
          1.37360558e-01, 1.37360558e-01, 0., 1.37360558e-01,
          1.37360558e-01, 1.37360558e-01, 1.37360558e-01, 0.,
          1.37360558e-01, 1.37360558e-01, 1.37360558e-01, 1.37360558e-01,
          1.37360558e-01, 1.37360558e-01, 1.37360558e-01, 1.37360558e-01,
          1.37360558e-01, 0., 1.37360558e-01, 1.37360558e-01,
          1.37360558e-01, 1.37360558e-01, 1.37360558e-01, 1.37360558e-01,
          1.37360558e-01, 1.37360558e-01, 1.37360558e-01, 1.37360558e-01,
          1.37360558e-01, 1.37360558e-01, 1.37360558e-01, 0.,
          1.37360558e-01, 0., 0., 1.37360558e-01, 0., 1.37360558e-01,
          1.37360558e-01, 1.37360558e-01, 0., 1.37360558e-01, 0.,
          1.37360558e-01, 0., 0., 1.37360558e-01 ]
      - [ 0., 0., 1.50755674e-01, 0., 1.50755674e-01, 1.50755674e-01,
          1.50755674e-01, 0., 0., 1.50755674e-01, 1.50755674e-01, 0., 0.,
          1.50755674e-01, 0., 1.50755674e-01, 0., 0., 1.50755674e-01, 0.,
          1.50755674e-01, 0., 1.50755674e-01, 0., 1.50755674e-01, 0.,
          1.50755674e-01, 0., 1.50755674e-01, 1.50755674e-01,
          1.50755674e-01, 0., 1.50755674e-01, 1.50755674e-01,
          1.50755674e-01, 1.50755674e-01, 0., 1.50755674e-01, 0.,
          1.50755674e-01, 1.50755674e-01, 1.50755674e-01, 1.50755674e-01,
          1.50755674e-01, 0., 0., 1.50755674e-01, 1.50755674e-01,
          1.50755674e-01, 0., 1.50755674e-01, 1.50755674e-01,
          1.50755674e-01, 1.50755674e-01, 1.50755674e-01, 1.50755674e-01,
          1.50755674e-01, 1.50755674e-01, 0., 0., 1.50755674e-01,
          1.50755674e-01, 1.50755674e-01, 0., 1.50755674e-01,
          1.50755674e-01, 1.50755674e-01, 1.50755674e-01, 0., 0. ]
      - [ 0., 0., 0., 0., 0., 0., 0., 1.69030845e-01, 0., 1.69030845e-01,
          1.69030845e-01, 1.69030845e-01, 0., 1.69030845e-01, 0., 0., 0.,
          0., 0., 0., 1.69030845e-01, 0., 1.69030845e-01, 1.69030845e-01,
          0., 0., 1.69030845e-01, 1.69030845e-01, 1.69030845e-01, 0.,
          1.69030845e-01, 1.69030845e-01, 0., 0., 0., 1.69030845e-01, 0.,
          1.69030845e-01, 0., 1.69030845e-01, 1.69030845e-01,
          1.69030845e-01, 1.69030845e-01, 1.69030845e-01, 0.,
          1.69030845e-01, 1.69030845e-01, 1.69030845e-01, 0.,
          1.69030845e-01, 1.69030845e-01, 1.69030845e-01, 0.,
          1.69030845e-01, 1.69030845e-01, 0., 0., 0., 1.69030845e-01, 0.,
          1.69030845e-01, 1.69030845e-01, 0., 1.69030845e-01, 0., 0.,
          1.69030845e-01, 1.69030845e-01, 0., 1.69030845e-01 ]
      - [ 0., 1.58113882e-01, 1.58113882e-01, 0., 1.58113882e-01, 0., 0.,
          0., 1.58113882e-01, 1.58113882e-01, 1.58113882e-01, 0., 0.,
          1.58113882e-01, 1.58113882e-01, 1.58113882e-01, 1.58113882e-01,
          0., 1.58113882e-01, 0., 0., 1.58113882e-01, 1.58113882e-01, 0.,
          1.58113882e-01, 0., 1.58113882e-01, 1.58113882e-01,
          1.58113882e-01, 1.58113882e-01, 1.58113882e-01, 1.58113882e-01,
          1.58113882e-01, 1.58113882e-01, 1.58113882e-01, 1.58113882e-01,
          0., 0., 1.58113882e-01, 1.58113882e-01, 0., 1.58113882e-01, 0.,
          0., 0., 1.58113882e-01, 1.58113882e-01, 1.58113882e-01,
          1.58113882e-01, 1.58113882e-01, 0., 1.58113882e-01, 0.,
          1.58113882e-01, 0., 0., 0., 0., 1.58113882e-01, 1.58113882e-01,
          1.58113882e-01, 1.58113882e-01, 0., 1.58113882e-01, 0., 0., 0.,
          0., 0., 1.58113882e-01 ]
      - [ 0., 1.60128146e-01, 1.60128146e-01, 0., 1.60128146e-01,
          1.60128146e-01, 0., 0., 1.60128146e-01, 1.60128146e-01,
          1.60128146e-01, 1.60128146e-01, 1.60128146e-01, 1.60128146e-01,
          0., 0., 0., 0., 0., 0., 1.60128146e-01, 0., 0., 1.60128146e-01,
          1.60128146e-01, 1.60128146e-01, 0., 0., 1.60128146e-01, 0., 0.,
          0., 0., 1.60128146e-01, 1.60128146e-01, 1.60128146e-01, 0., 0.,
          1.60128146e-01, 0., 1.60128146e-01, 1.60128146e-01,
          1.60128146e-01, 1.60128146e-01, 0., 1.60128146e-01,
          1.60128146e-01, 1.60128146e-01, 1.60128146e-01, 0.,
          1.60128146e-01, 1.60128146e-01, 1.60128146e-01, 1.60128146e-01,
          0., 1.60128146e-01, 1.60128146e-01, 0., 0., 0., 0., 0., 0.,
          1.60128146e-01, 0., 1.60128146e-01, 1.60128146e-01,
          1.60128146e-01, 1.60128146e-01, 1.60128146e-01 ]
      - [ 0., 1.56173766e-01, 1.56173766e-01, 0., 0., 1.56173766e-01,
          1.56173766e-01, 1.56173766e-01, 0., 0., 1.56173766e-01, 0.,
          1.56173766e-01, 1.56173766e-01, 1.56173766e-01, 0.,
          1.56173766e-01, 0., 0., 1.56173766e-01, 0., 1.56173766e-01, 0.,
          1.56173766e-01, 0., 0., 1.56173766e-01, 0., 0., 1.56173766e-01,
          1.56173766e-01, 1.56173766e-01, 1.56173766e-01, 1.56173766e-01,
          0., 1.56173766e-01, 0., 1.56173766e-01, 0., 1.56173766e-01,
          1.56173766e-01, 1.56173766e-01, 1.56173766e-01, 1.56173766e-01,
          1.56173766e-01, 0., 0., 0., 1.56173766e-01, 1.56173766e-01, 0.,
          1.56173766e-01, 1.56173766e-01, 1.56173766e-01, 1.56173766e-01,
          0., 0., 0., 1.56173766e-01, 1.56173766e-01, 1.56173766e-01, 0.,
          1.56173766e-01, 1.56173766e-01, 1.56173766e-01, 0.,
          1.56173766e-01, 1.56173766e-01, 0., 0. ]
      - [ 1.64398983e-01, 0., 0., 1.64398983e-01, 0., 1.64398983e-01,
          1.64398983e-01, 0., 1.64398983e-01, 0., 1.64398983e-01,
          1.64398983e-01, 1.64398983e-01, 0., 1.64398983e-01, 0.,
          1.64398983e-01, 1.64398983e-01, 0., 1.64398983e-01, 0., 0., 0.,
          0., 0., 0., 0., 1.64398983e-01, 1.64398983e-01, 1.64398983e-01,
          1.64398983e-01, 0., 1.64398983e-01, 1.64398983e-01,
          1.64398983e-01, 1.64398983e-01, 0., 0., 0., 0., 0.,
          1.64398983e-01, 1.64398983e-01, 1.64398983e-01, 1.64398983e-01,
          1.64398983e-01, 1.64398983e-01, 0., 1.64398983e-01, 0., 0.,
          1.64398983e-01, 1.64398983e-01, 0., 0., 1.64398983e-01, 0., 0.,
          1.64398983e-01, 0., 0., 0., 1.64398983e-01, 1.64398983e-01,
          1.64398983e-01, 1.64398983e-01, 1.64398983e-01, 0.,
          1.64398983e-01, 0. ]
      - [ 1.54303357e-01, 1.54303357e-01, 0., 0., 1.54303357e-01,
          1.54303357e-01, 1.54303357e-01, 0., 0., 1.54303357e-01, 0., 0.,
          1.54303357e-01, 1.54303357e-01, 0., 0., 1.54303357e-01, 0.,
          1.54303357e-01, 0., 1.54303357e-01, 1.54303357e-01, 0.,
          1.54303357e-01, 1.54303357e-01, 1.54303357e-01, 1.54303357e-01,
          1.54303357e-01, 1.54303357e-01, 0., 1.54303357e-01,
          1.54303357e-01, 0., 0., 1.54303357e-01, 1.54303357e-01,
          1.54303357e-01, 1.54303357e-01, 0., 0., 0., 1.54303357e-01,
          1.54303357e-01, 1.54303357e-01, 1.54303357e-01, 0.,
          1.54303357e-01, 0., 1.54303357e-01, 1.54303357e-01, 0.,
          1.54303357e-01, 1.54303357e-01, 1.54303357e-01, 0.,
          1.54303357e-01, 1.54303357e-01, 0., 1.54303357e-01, 0.,
          1.54303357e-01, 1.54303357e-01, 1.54303357e-01, 0., 0., 0., 0.,
          1.54303357e-01, 1.54303357e-01, 0. ]
      - [ 1.49071202e-01, 0., 1.49071202e-01, 0., 1.49071202e-01,
          1.49071202e-01, 1.49071202e-01, 0., 0., 0., 1.49071202e-01, 0.,
          1.49071202e-01, 1.49071202e-01, 0., 0., 0., 1.49071202e-01, 0.,
          0., 0., 0., 1.49071202e-01, 0., 1.49071202e-01, 1.49071202e-01,
          1.49071202e-01, 1.49071202e-01, 1.49071202e-01, 0.,
          1.49071202e-01, 0., 1.49071202e-01, 0., 0., 1.49071202e-01,
          1.49071202e-01, 1.49071202e-01, 1.49071202e-01, 1.49071202e-01,
          1.49071202e-01, 0., 0., 1.49071202e-01, 1.49071202e-01,
          1.49071202e-01, 1.49071202e-01, 1.49071202e-01, 1.49071202e-01,
          1.49071202e-01, 0., 1.49071202e-01, 0., 1.49071202e-01,
          1.49071202e-01, 1.49071202e-01, 0., 1.49071202e-01,
          1.49071202e-01, 0., 1.49071202e-01, 1.49071202e-01,
          1.49071202e-01, 1.49071202e-01, 0., 1.49071202e-01,
          1.49071202e-01, 1.49071202e-01, 1.49071202e-01, 1.49071202e-01 ]
      - [ 1.45864993e-01, 1.45864993e-01, 1.45864993e-01, 0.,
          1.45864993e-01, 1.45864993e-01, 1.45864993e-01, 0.,
          1.45864993e-01, 1.45864993e-01, 1.45864993e-01, 0.,
          1.45864993e-01, 1.45864993e-01, 1.45864993e-01, 0.,
          1.45864993e-01, 1.45864993e-01, 1.45864993e-01, 1.45864993e-01,
          0., 1.45864993e-01, 1.45864993e-01, 1.45864993e-01,
          1.45864993e-01, 1.45864993e-01, 0., 1.45864993e-01,
          1.45864993e-01, 0., 1.45864993e-01, 0., 0., 1.45864993e-01,
          1.45864993e-01, 1.45864993e-01, 0., 0., 0., 1.45864993e-01, 0.,
          0., 0., 0., 1.45864993e-01, 1.45864993e-01, 1.45864993e-01,
          1.45864993e-01, 1.45864993e-01, 1.45864993e-01, 1.45864993e-01,
          0., 1.45864993e-01, 0., 1.45864993e-01, 1.45864993e-01,
          1.45864993e-01, 0., 1.45864993e-01, 0., 0., 1.45864993e-01,
          1.45864993e-01, 1.45864993e-01, 0., 0., 1.45864993e-01,
          1.45864993e-01, 1.45864993e-01, 1.45864993e-01 ]
      - [ 1.41421363e-01, 1.41421363e-01, 1.41421363e-01, 1.41421363e-01,
          0., 1.41421363e-01, 1.41421363e-01, 0., 1.41421363e-01,
          1.41421363e-01, 1.41421363e-01, 0., 0., 1.41421363e-01,
          1.41421363e-01, 1.41421363e-01, 1.41421363e-01, 0.,
          1.41421363e-01, 1.41421363e-01, 1.41421363e-01, 1.41421363e-01,
          1.41421363e-01, 1.41421363e-01, 1.41421363e-01, 1.41421363e-01,
          0., 1.41421363e-01, 1.41421363e-01, 1.41421363e-01, 0.,
          1.41421363e-01, 1.41421363e-01, 1.41421363e-01, 0.,
          1.41421363e-01, 1.41421363e-01, 1.41421363e-01, 0.,
          1.41421363e-01, 0., 1.41421363e-01, 1.41421363e-01,
          1.41421363e-01, 1.41421363e-01, 0., 1.41421363e-01,
          1.41421363e-01, 1.41421363e-01, 0., 1.41421363e-01,
          1.41421363e-01, 1.41421363e-01, 1.41421363e-01, 1.41421363e-01,
          1.41421363e-01, 0., 0., 0., 0., 1.41421363e-01, 0.,
          1.41421363e-01, 1.41421363e-01, 0., 0., 1.41421363e-01,
          1.41421363e-01, 1.41421363e-01, 0. ]
      - [ 1.56173766e-01, 0., 1.56173766e-01, 0., 1.56173766e-01,
          1.56173766e-01, 1.56173766e-01, 0., 1.56173766e-01,
          1.56173766e-01, 1.56173766e-01, 0., 1.56173766e-01, 0.,
          1.56173766e-01, 1.56173766e-01, 0., 1.56173766e-01, 0.,
          1.56173766e-01, 0., 1.56173766e-01, 0., 1.56173766e-01, 0., 0.,
          0., 1.56173766e-01, 1.56173766e-01, 0., 0., 0., 1.56173766e-01,
          1.56173766e-01, 1.56173766e-01, 1.56173766e-01, 0.,
          1.56173766e-01, 1.56173766e-01, 1.56173766e-01, 0.,
          1.56173766e-01, 0., 1.56173766e-01, 1.56173766e-01,
          1.56173766e-01, 1.56173766e-01, 1.56173766e-01, 0.,
          1.56173766e-01, 0., 1.56173766e-01, 1.56173766e-01,
          1.56173766e-01, 0., 0., 0., 0., 1.56173766e-01, 1.56173766e-01,
          1.56173766e-01, 0., 1.56173766e-01, 0., 0., 1.56173766e-01,
          1.56173766e-01, 1.56173766e-01, 0., 0. ]
      - [ 1.49071202e-01, 0., 1.49071202e-01, 1.49071202e-01, 0.,
          1.49071202e-01, 0., 0., 1.49071202e-01, 1.49071202e-01, 0.,
          1.49071202e-01, 1.49071202e-01, 0., 1.49071202e-01,
          1.49071202e-01, 0., 0., 0., 0., 1.49071202e-01, 0.,
          1.49071202e-01, 1.49071202e-01, 0., 1.49071202e-01,
          1.49071202e-01, 1.49071202e-01, 1.49071202e-01, 0.,
          1.49071202e-01, 1.49071202e-01, 1.49071202e-01, 1.49071202e-01,
          1.49071202e-01, 1.49071202e-01, 1.49071202e-01, 1.49071202e-01,
          1.49071202e-01, 1.49071202e-01, 0., 1.49071202e-01,
          1.49071202e-01, 0., 1.49071202e-01, 0., 1.49071202e-01,
          1.49071202e-01, 1.49071202e-01, 1.49071202e-01, 1.49071202e-01,
          1.49071202e-01, 0., 0., 0., 0., 0., 0., 1.49071202e-01,
          1.49071202e-01, 1.49071202e-01, 1.49071202e-01, 1.49071202e-01,
          0., 1.49071202e-01, 1.49071202e-01, 1.49071202e-01, 0.,
          1.49071202e-01, 0. ]
      - [ 0., 0., 1.58113882e-01, 0., 1.58113882e-01, 0., 1.58113882e-01,
          1.58113882e-01, 0., 0., 1.58113882e-01, 1.58113882e-01,
          1.58113882e-01, 0., 1.58113882e-01, 1.58113882e-01,
          1.58113882e-01, 1.58113882e-01, 0., 1.58113882e-01,
          1.58113882e-01, 1.58113882e-01, 0., 1.58113882e-01,
          1.58113882e-01, 0., 1.58113882e-01, 1.58113882e-01, 0., 0., 0.,
          1.58113882e-01, 1.58113882e-01, 0., 0., 1.58113882e-01,
          1.58113882e-01, 1.58113882e-01, 0., 1.58113882e-01,
          1.58113882e-01, 1.58113882e-01, 0., 1.58113882e-01,
          1.58113882e-01, 0., 1.58113882e-01, 1.58113882e-01, 0.,
          1.58113882e-01, 0., 1.58113882e-01, 0., 0., 0., 0., 0.,
          1.58113882e-01, 1.58113882e-01, 0., 0., 0., 0., 1.58113882e-01,
          1.58113882e-01, 1.58113882e-01, 1.58113882e-01, 0.,
          1.58113882e-01, 1.58113882e-01 ]
      - [ 0., 1.47441953e-01, 1.47441953e-01, 1.47441953e-01,
          1.47441953e-01, 1.47441953e-01, 1.47441953e-01, 1.47441953e-01,
          0., 1.47441953e-01, 1.47441953e-01, 0., 1.47441953e-01, 0.,
          1.47441953e-01, 1.47441953e-01, 1.47441953e-01, 1.47441953e-01,
          0., 1.47441953e-01, 1.47441953e-01, 1.47441953e-01, 0., 0.,
          1.47441953e-01, 1.47441953e-01, 1.47441953e-01, 0.,
          1.47441953e-01, 0., 1.47441953e-01, 1.47441953e-01, 0.,
          1.47441953e-01, 1.47441953e-01, 1.47441953e-01, 1.47441953e-01,
          0., 0., 0., 1.47441953e-01, 0., 0., 1.47441953e-01, 0.,
          1.47441953e-01, 1.47441953e-01, 1.47441953e-01, 1.47441953e-01,
          1.47441953e-01, 0., 1.47441953e-01, 0., 1.47441953e-01,
          1.47441953e-01, 0., 1.47441953e-01, 0., 0., 1.47441953e-01,
          1.47441953e-01, 1.47441953e-01, 0., 1.47441953e-01, 0.,
          1.47441953e-01, 1.47441953e-01, 1.47441953e-01, 1.47441953e-01,
          0. ]
      - [ 1.50755674e-01, 1.50755674e-01, 0., 1.50755674e-01, 0.,
          1.50755674e-01, 1.50755674e-01, 1.50755674e-01, 0.,
          1.50755674e-01, 1.50755674e-01, 1.50755674e-01, 0.,
          1.50755674e-01, 1.50755674e-01, 1.50755674e-01, 1.50755674e-01,
          1.50755674e-01, 1.50755674e-01, 0., 0., 0., 0., 0.,
          1.50755674e-01, 0., 1.50755674e-01, 0., 1.50755674e-01,
          1.50755674e-01, 1.50755674e-01, 1.50755674e-01, 0.,
          1.50755674e-01, 1.50755674e-01, 1.50755674e-01, 1.50755674e-01,
          1.50755674e-01, 0., 1.50755674e-01, 1.50755674e-01,
          1.50755674e-01, 0., 0., 0., 0., 1.50755674e-01, 0.,
          1.50755674e-01, 1.50755674e-01, 0., 1.50755674e-01,
          1.50755674e-01, 0., 1.50755674e-01, 1.50755674e-01, 0., 0., 0.,
          0., 1.50755674e-01, 1.50755674e-01, 0., 1.50755674e-01,
          1.50755674e-01, 0., 1.50755674e-01, 1.50755674e-01,
          1.50755674e-01, 1.50755674e-01 ]
      - [ 0., 0., 1.62221417e-01, 0., 0., 1.62221417e-01, 1.62221417e-01,
          1.62221417e-01, 1.62221417e-01, 1.62221417e-01, 1.62221417e-01,
          1.62221417e-01, 1.62221417e-01, 0., 0., 0., 1.62221417e-01,
          1.62221417e-01, 0., 0., 1.62221417e-01, 0., 0., 1.62221417e-01,
          0., 0., 1.62221417e-01, 0., 0., 0., 1.62221417e-01,
          1.62221417e-01, 1.62221417e-01, 1.62221417e-01, 1.62221417e-01,
          1.62221417e-01, 0., 1.62221417e-01, 0., 1.62221417e-01,
          1.62221417e-01, 0., 0., 0., 1.62221417e-01, 1.62221417e-01,
          1.62221417e-01, 1.62221417e-01, 0., 1.62221417e-01,
          1.62221417e-01, 1.62221417e-01, 1.62221417e-01, 0., 0.,
          1.62221417e-01, 1.62221417e-01, 1.62221417e-01, 0., 0.,
          1.62221417e-01, 0., 0., 0., 0., 0., 1.62221417e-01,
          1.62221417e-01, 1.62221417e-01, 0. ]
      - [ 1.45864993e-01, 0., 1.45864993e-01, 0., 0., 1.45864993e-01,
          1.45864993e-01, 1.45864993e-01, 1.45864993e-01, 1.45864993e-01,
          1.45864993e-01, 0., 0., 1.45864993e-01, 0., 0., 1.45864993e-01,
          0., 0., 0., 1.45864993e-01, 1.45864993e-01, 1.45864993e-01,
          1.45864993e-01, 0., 1.45864993e-01, 0., 1.45864993e-01, 0., 0.,
          1.45864993e-01, 1.45864993e-01, 1.45864993e-01, 0.,
          1.45864993e-01, 1.45864993e-01, 1.45864993e-01, 0.,
          1.45864993e-01, 1.45864993e-01, 1.45864993e-01, 1.45864993e-01,
          1.45864993e-01, 0., 1.45864993e-01, 1.45864993e-01,
          1.45864993e-01, 1.45864993e-01, 1.45864993e-01, 1.45864993e-01,
          1.45864993e-01, 1.45864993e-01, 0., 1.45864993e-01,
          1.45864993e-01, 1.45864993e-01, 0., 0., 0., 0., 1.45864993e-01,
          0., 1.45864993e-01, 1.45864993e-01, 1.45864993e-01,
          1.45864993e-01, 1.45864993e-01, 1.45864993e-01, 1.45864993e-01,
          1.45864993e-01 ]
      - [ 0., 1.60128146e-01, 1.60128146e-01, 1.60128146e-01,
          1.60128146e-01, 1.60128146e-01, 1.60128146e-01, 0.,
          1.60128146e-01, 1.60128146e-01, 1.60128146e-01, 0., 0.,
          1.60128146e-01, 1.60128146e-01, 0., 0., 1.60128146e-01,
          1.60128146e-01, 0., 1.60128146e-01, 1.60128146e-01,
          1.60128146e-01, 1.60128146e-01, 0., 0., 1.60128146e-01, 0.,
          1.60128146e-01, 1.60128146e-01, 0., 1.60128146e-01, 0., 0.,
          1.60128146e-01, 0., 0., 1.60128146e-01, 1.60128146e-01,
          1.60128146e-01, 0., 1.60128146e-01, 0., 0., 0., 1.60128146e-01,
          1.60128146e-01, 0., 1.60128146e-01, 1.60128146e-01, 0.,
          1.60128146e-01, 1.60128146e-01, 0., 0., 0., 1.60128146e-01, 0.,
